{"learner":{"attributes":{"scikit_learn":"{\"_estimator_type\": \"classifier\"}"},"feature_names":[],"feature_types":[],"gradient_booster":{"model":{"gbtree_model_param":{"num_parallel_tree":"1","num_trees":"100"},"iteration_indptr":[0,1,2,3,4,5,6,7,8,9,10,11,12,13,14,15,16,17,18,19,20,21,22,23,24,25,26,27,28,29,30,31,32,33,34,35,36,37,38,39,40,41,42,43,44,45,46,47,48,49,50,51,52,53,54,55,56,57,58,59,60,61,62,63,64,65,66,67,68,69,70,71,72,73,74,75,76,77,78,79,80,81,82,83,84,85,86,87,88,89,90,91,92,93,94,95,96,97,98,99,100],"tree_info":[0,0,0,0,0,0,0,0,0,0,0,0,0,0,0,0,0,0,0,0,0,0,0,0,0,0,0,0,0,0,0,0,0,0,0,0,0,0,0,0,0,0,0,0,0,0,0,0,0,0,0,0,0,0,0,0,0,0,0,0,0,0,0,0,0,0,0,0,0,0,0,0,0,0,0,0,0,0,0,0,0,0,0,0,0,0,0,0,0,0,0,0,0,0,0,0,0,0,0,0],"trees":[{"base_weights":[1.947784E-3,1.8690199E0,-1.5480077E0,-1.3330668E0,1.9182919E0,-1.8408209E0,-8.7193495E-1,1.9322034E0,-1.5790378E0,1.9357759E0,-1.2629213E0,-1.9398246E0,-1.5395247E0,2.930319E-1,-1.2254114E0,5E-2,1.9537573E-1,-1.9188596E0,-3.464567E-1,1.9488795E0,-1.9270073E0,-1.9718707E0,1.5191257E0,-1.3765281E0,-1.9579915E0,-1.8022237E0,-5.388819E-1,7.317499E-1,-1.6932806E0,2.6531902E-1,-1.4628744E0,-1.9435984E-1,-9.818182E-2,-1.9475983E-1,9.540636E-2,1.994866E-1,1.483399E-1,-1.9851851E-1,1.3333334E-1,2.2222223E-2,-1.9886686E-1,1.879518E-1,-1.6190477E-1,-1.7680089E-1,4.9560633E-2,-1.7065379E-1,-1.985961E-1,-1.9880503E-1,-1.3628493E-1,7.164574E-2,-1.4614825E-1,1.146035E-1,-1.5738831E-1,-1.9491287E-1,-3.5523113E-2,8.550062E-2,-1.6005257E-1,-4.7061816E-2,-1.571656E-1],"categories":[],"categories_nodes":[],"categories_segments":[],"categories_sizes":[],"default_left":[0,0,0,0,0,0,0,0,0,0,0,0,0,0,0,0,0,0,0,0,0,0,0,0,0,0,0,0,0,0,0,0,0,0,0,0,0,0,0,0,0,0,0,0,0,0,0,0,0,0,0,0,0,0,0,0,0,0,0],"id":0,"left_children":[1,3,5,7,9,11,13,15,17,19,21,23,25,27,29,-1,-1,31,33,35,37,39,41,43,45,47,49,51,53,55,57,-1,-1,-1,-1,-1,-1,-1,-1,-1,-1,-1,-1,-1,-1,-1,-1,-1,-1,-1,-1,-1,-1,-1,-1,-1,-1,-1,-1],"loss_changes":[2.6297688E5,6.5059844E3,9.827953E3,5.052279E2,2.260375E3,1.0305E3,6.1804785E3,3.8909912E-1,2.431106E2,2.0473594E3,4.4183896E2,2.64125E2,2.252791E3,3.0464548E3,4.0764434E3,0E0,0E0,8.6623535E0,2.6631244E2,8.58375E2,2.8632996E1,6.993103E0,5.4785088E1,6.003921E2,1.7424219E2,5.5171875E2,2.0675237E3,2.7365112E3,2.1583594E2,1.7430875E3,1.0713672E3,0E0,0E0,0E0,0E0,0E0,0E0,0E0,0E0,0E0,0E0,0E0,0E0,0E0,0E0,0E0,0E0,0E0,0E0,0E0,0E0,0E0,0E0,0E0,0E0,0E0,0E0,0E0,0E0],"parents":[2147483647,0,0,1,1,2,2,3,3,4,4,5,5,6,6,7,7,8,8,9,9,10,10,11,11,12,12,13,13,14,14,17,17,18,18,19,19,20,20,21,21,22,22,23,23,24,24,25,25,26,26,27,27,28,28,29,29,30,30],"right_children":[2,4,6,8,10,12,14,16,18,20,22,24,26,28,30,-1,-1,32,34,36,38,40,42,44,46,48,50,52,54,56,58,-1,-1,-1,-1,-1,-1,-1,-1,-1,-1,-1,-1,-1,-1,-1,-1,-1,-1,-1,-1,-1,-1,-1,-1,-1,-1,-1,-1],"split_conditions":[-1.8703576E0,-1.9239551E-1,5.2980113E-1,-3.2193327E0,1.0044259E0,5.035724E-1,-6.27312E-1,7.6518506E-1,-1.9539441E0,5.700496E-1,-2.3368661E-1,-9.429702E-1,1.1773738E-1,8.1410027E-1,-4.373301E-1,5E-2,1.9537573E-1,-2.1332732E-1,1.2091603E0,-1.7309262E0,4.7775143E-1,-2.083542E-1,-2.2424431E-1,-4.2311403E-1,-8.6841035E-1,-3.1470146E-2,-5.830159E-1,6.088396E-1,5.47958E-1,1.3950509E-1,-1.8417227E0,-1.9435984E-1,-9.818182E-2,-1.9475983E-1,9.540636E-2,1.994866E-1,1.483399E-1,-1.9851851E-1,1.3333334E-1,2.2222223E-2,-1.9886686E-1,1.879518E-1,-1.6190477E-1,-1.7680089E-1,4.9560633E-2,-1.7065379E-1,-1.985961E-1,-1.9880503E-1,-1.3628493E-1,7.164574E-2,-1.4614825E-1,1.146035E-1,-1.5738831E-1,-1.9491287E-1,-3.5523113E-2,8.550062E-2,-1.6005257E-1,-4.7061816E-2,-1.571656E-1],"split_indices":[14,4,4,10,1,7,14,2,14,10,29,20,4,3,8,0,0,4,0,10,1,2,15,1,14,29,10,1,11,13,19,0,0,0,0,0,0,0,0,0,0,0,0,0,0,0,0,0,0,0,0,0,0,0,0,0,0,0,0],"split_type":[0,0,0,0,0,0,0,0,0,0,0,0,0,0,0,0,0,0,0,0,0,0,0,0,0,0,0,0,0,0,0,0,0,0,0,0,0,0,0,0,0,0,0,0,0,0,0,0,0,0,0,0,0,0,0,0,0,0,0],"sum_hessian":[9.08715E4,4.1219E4,4.96525E4,6.2425E2,4.059475E4,3.46455E4,1.5007E4,4.325E1,5.81E2,4.037325E4,2.215E2,2.607275E4,8.57275E3,3.4935E3,1.15135E4,1E0,4.225E1,4.55E2,1.26E2,4.023725E4,1.36E2,1.7675E2,4.475E1,8.17E2,2.525575E4,6.7895E3,1.78325E3,2.862E3,6.315E2,1.582E3,9.9315E3,4.4225E2,1.275E1,5.625E1,6.975E1,3.66165E4,3.62075E3,1.34E2,2E0,1.25E0,1.755E2,4.05E1,4.25E0,6.7575E2,1.4125E2,2.53425E3,2.27215E4,4.769E3,2.0205E3,7.555E2,1.02775E3,2.4265E3,4.355E2,5.2975E2,1.0175E2,1.2025E3,3.795E2,9.8175E2,8.94975E3],"tree_param":{"num_deleted":"0","num_feature":"30","num_nodes":"59","size_leaf_vector":"1"}},{"base_weights":[-1.7861507E-3,1.6998813E0,-1.4059494E0,-1.0721416E0,1.7484776E0,-1.671546E0,-7.927066E-1,3.0058157E-1,-1.6106423E0,1.7645826E0,-1.0914284E0,-1.6954606E0,-4.67117E-1,5.9240635E-2,-1.3463249E0,1.4441313E0,-1.8592475E-1,-1.771419E0,-6.055361E-1,1.7757545E0,-1.74769E0,-1.7446702E0,1.4212879E0,-1.3826053E0,-1.759852E0,-1.3885288E0,9.02718E-1,8.083634E-1,-8.687112E-1,-2.639378E-1,-1.4630599E0,1.7095453E-1,-1.705931E-1,-1.8304583E-1,-1.429527E-1,-1.7156057E-1,4.805241E-2,1.8157661E-1,1.3471508E-1,-1.8053879E-1,1.24826364E-1,1.0862496E-1,-1.7942749E-1,-1.510763E-1,1.6876017E-1,-1.7883813E-1,-8.607509E-2,-1.7829736E-1,-1.4805762E-1,-1.6960596E-1,-2.6623342E-2,1.4977507E-1,-1.8605725E-1,1.1731066E-1,-1.3314557E-1,9.829836E-2,-1.2673913E-1,3.5896633E-2,-1.1665638E-1,-1.5099433E-1,9.953013E-2],"categories":[],"categories_nodes":[],"categories_segments":[],"categories_sizes":[],"default_left":[0,0,0,0,0,0,0,0,0,0,0,0,0,0,0,0,0,0,0,0,0,0,0,0,0,0,0,0,0,0,0,0,0,0,0,0,0,0,0,0,0,0,0,0,0,0,0,0,0,0,0,0,0,0,0,0,0,0,0,0,0],"id":1,"left_children":[1,3,5,7,9,11,13,15,17,19,21,23,25,27,29,31,-1,33,35,37,39,41,43,45,47,49,51,53,55,57,59,-1,-1,-1,-1,-1,-1,-1,-1,-1,-1,-1,-1,-1,-1,-1,-1,-1,-1,-1,-1,-1,-1,-1,-1,-1,-1,-1,-1,-1,-1],"loss_changes":[2.1578492E5,5.5019688E3,8.057672E3,5.209342E2,1.8371406E3,9.9364844E2,7.053783E3,4.9472455E2,8.067053E1,1.5687266E3,3.7489603E2,6.7953906E2,8.513979E2,4.09616E3,1.1449727E3,1.12287384E2,0E0,6.175171E0,8.67547E1,6.796406E2,2.4209442E1,2.7299255E1,3.953472E1,1.2230293E3,1.78625E2,1.3866772E2,4.4915216E2,2.5462256E3,1.9443591E3,4.972681E2,9.44541E2,0E0,0E0,0E0,0E0,0E0,0E0,0E0,0E0,0E0,0E0,0E0,0E0,0E0,0E0,0E0,0E0,0E0,0E0,0E0,0E0,0E0,0E0,0E0,0E0,0E0,0E0,0E0,0E0,0E0,0E0],"parents":[2147483647,0,0,1,1,2,2,3,3,4,4,5,5,6,6,7,7,8,8,9,9,10,10,11,11,12,12,13,13,14,14,15,15,17,17,18,18,19,19,20,20,21,21,22,22,23,23,24,24,25,25,26,26,27,27,28,28,29,29,30,30],"right_children":[2,4,6,8,10,12,14,16,18,20,22,24,26,28,30,32,-1,34,36,38,40,42,44,46,48,50,52,54,56,58,60,-1,-1,-1,-1,-1,-1,-1,-1,-1,-1,-1,-1,-1,-1,-1,-1,-1,-1,-1,-1,-1,-1,-1,-1,-1,-1,-1,-1,-1,-1],"split_conditions":[-1.8703576E0,-1.3163404E-1,5.2980113E-1,-1.2968866E0,9.9708927E-1,1.6893688E0,-2.3378114E-1,2.623477E-1,1.3886852E0,5.700496E-1,4.2481008E-1,-6.7416054E-1,6.596908E-1,1.5585114E-1,-4.5822993E-1,6.6497236E-1,-1.8592475E-1,-1.9539441E0,8.274684E-1,-1.2757766E0,4.7775143E-1,-4.3171026E-2,1.1211058E0,-1.9239551E-1,8.5991204E-1,5.239611E-1,-5.967927E-1,8.32891E-1,-6.2573457E-1,-3.816534E-2,1.9643646E0,1.7095453E-1,-1.705931E-1,-1.8304583E-1,-1.429527E-1,-1.7156057E-1,4.805241E-2,1.8157661E-1,1.3471508E-1,-1.8053879E-1,1.24826364E-1,1.0862496E-1,-1.7942749E-1,-1.510763E-1,1.6876017E-1,-1.7883813E-1,-8.607509E-2,-1.7829736E-1,-1.4805762E-1,-1.6960596E-1,-2.6623342E-2,1.4977507E-1,-1.8605725E-1,1.1731066E-1,-1.3314557E-1,9.829836E-2,-1.2673913E-1,3.5896633E-2,-1.1665638E-1,-1.5099433E-1,9.953013E-2],"split_indices":[14,4,4,10,1,7,12,16,0,10,19,14,19,14,8,5,0,14,11,12,1,4,0,4,7,15,16,3,8,13,11,0,0,0,0,0,0,0,0,0,0,0,0,0,0,0,0,0,0,0,0,0,0,0,0,0,0,0,0,0,0],"split_type":[0,0,0,0,0,0,0,0,0,0,0,0,0,0,0,0,0,0,0,0,0,0,0,0,0,0,0,0,0,0,0,0,0,0,0,0,0,0,0,0,0,0,0,0,0,0,0,0,0,0,0,0,0,0,0,0,0,0,0,0,0],"sum_hessian":[9.030654E4,4.0827992E4,4.947855E4,7.0306024E2,4.012493E4,3.4524285E4,1.4954265E4,1.9821664E2,5.0484363E2,3.9899043E4,2.2588786E2,3.3851734E4,6.7255133E2,5.890475E3,9.06379E3,1.298155E2,6.8401146E1,4.3456778E2,7.0275826E1,3.9773027E4,1.2601518E2,1.7952232E2,4.636554E1,5.7819214E3,2.8069812E4,4.020805E2,2.7047083E2,3.259364E3,2.6311108E3,8.8268134E2,8.181109E3,1.2014941E2,9.666103E0,3.6686264E2,6.770515E1,3.4467102E1,3.580872E1,3.6374133E4,3.3988958E3,1.2402405E2,1.9911374E0,2.7316284E0,1.767907E2,3.4715629E0,4.2893974E1,3.2513535E3,2.5305676E3,2.5918602E4,2.1512107E3,3.151987E2,8.688182E1,2.2292523E2,4.754559E1,2.7850837E3,4.7428018E2,4.658722E2,2.1652385E3,5.2262146E2,3.6005988E2,8.0283853E3,1.5272327E2],"tree_param":{"num_deleted":"0","num_feature":"30","num_nodes":"61","size_leaf_vector":"1"}},{"base_weights":[-2.454211E-3,1.568558E0,-1.293242E0,-8.3820254E-1,1.6162182E0,-1.5424623E0,-7.225949E-1,3.4452555E-1,-1.4874654E0,1.6312636E0,-1.0617023E0,-1.6324731E0,-1.2685755E0,8.8165596E-2,-1.2089325E0,1.2426972E0,-1.7858493E-1,-1.6525835E0,-6.1732686E-1,1.6409494E0,-1.618611E0,-1.6271333E0,1.4252632E0,-1.0653601E0,-1.6489495E0,-1.535495E0,-4.449278E-1,7.983379E-1,-7.883504E-1,-7.0330995E-1,-1.3869734E0,1.5737689E-1,-1.7924248E-1,-1.7154978E-1,-1.40218E-1,-1.7660755E-1,3.7795696E-2,1.6798511E-1,1.2417483E-1,-1.6697478E-1,1.1211064E-1,-1.661722E-1,-2.0636309E-2,-1.2101064E-1,1.5885387E-1,-1.5863839E-1,3.8417585E-2,-1.447814E-1,-1.6732784E-1,-9.3595214E-2,-1.6519462E-1,7.360445E-2,-1.1857273E-1,-1.0602828E-1,1.1416862E-1,1.7967305E-1,-9.6615635E-2,-1.2519325E-1,4.0097073E-2,-9.6679814E-2,-1.5525213E-1],"categories":[],"categories_nodes":[],"categories_segments":[],"categories_sizes":[],"default_left":[0,0,0,0,0,0,0,0,0,0,0,0,0,0,0,0,0,0,0,0,0,0,0,0,0,0,0,0,0,0,0,0,0,0,0,0,0,0,0,0,0,0,0,0,0,0,0,0,0,0,0,0,0,0,0,0,0,0,0,0,0],"id":2,"left_children":[1,3,5,7,9,11,13,15,17,19,21,23,25,27,29,31,-1,33,35,37,39,41,43,45,47,49,51,53,55,57,59,-1,-1,-1,-1,-1,-1,-1,-1,-1,-1,-1,-1,-1,-1,-1,-1,-1,-1,-1,-1,-1,-1,-1,-1,-1,-1,-1,-1,-1,-1],"loss_changes":[1.7898612E5,4.567922E3,6.889789E3,5.9464496E2,1.5745938E3,8.293125E2,5.808434E3,5.284479E2,7.077344E1,1.2246328E3,3.0986853E2,2.3538281E2,1.8341992E3,3.4392368E3,8.2790234E2,1.9780573E2,0E0,4.2019043E0,9.361421E1,5.9897656E2,1.810373E1,8.437073E0,1.9584465E1,5.438874E2,1.1825E2,4.3851367E2,1.7892278E3,1.9489178E3,1.13842E3,1.454426E3,4.7210352E2,0E0,0E0,0E0,0E0,0E0,0E0,0E0,0E0,0E0,0E0,0E0,0E0,0E0,0E0,0E0,0E0,0E0,0E0,0E0,0E0,0E0,0E0,0E0,0E0,0E0,0E0,0E0,0E0,0E0,0E0],"parents":[2147483647,0,0,1,1,2,2,3,3,4,4,5,5,6,6,7,7,8,8,9,9,10,10,11,11,12,12,13,13,14,14,15,15,17,17,18,18,19,19,20,20,21,21,22,22,23,23,24,24,25,25,26,26,27,27,28,28,29,29,30,30],"right_children":[2,4,6,8,10,12,14,16,18,20,22,24,26,28,30,32,-1,34,36,38,40,42,44,46,48,50,52,54,56,58,60,-1,-1,-1,-1,-1,-1,-1,-1,-1,-1,-1,-1,-1,-1,-1,-1,-1,-1,-1,-1,-1,-1,-1,-1,-1,-1,-1,-1,-1,-1],"split_conditions":[-1.8703576E0,-6.089719E-2,5.2980113E-1,-1.2027111E0,9.9708927E-1,5.035724E-1,-2.9006934E-1,6.9849914E-1,1.3640372E0,5.9401184E-1,4.9091363E-1,-1.004264E0,5.603241E-2,1.5585114E-1,-4.088523E-1,-5.6641E-1,-1.7858493E-1,9.9708927E-1,2.0899646E-1,-1.4528352E0,4.7775143E-1,4.2481008E-1,1.1211058E0,-7.3515856E-1,-8.356295E-1,-1.9617648E-1,-6.3126326E-1,-1.0561545E0,-4.0467615E0,6.699125E-1,-1.2030911E-1,1.5737689E-1,-1.7924248E-1,-1.7154978E-1,-1.40218E-1,-1.7660755E-1,3.7795696E-2,1.6798511E-1,1.2417483E-1,-1.6697478E-1,1.1211064E-1,-1.661722E-1,-2.0636309E-2,-1.2101064E-1,1.5885387E-1,-1.5863839E-1,3.8417585E-2,-1.447814E-1,-1.6732784E-1,-9.3595214E-2,-1.6519462E-1,7.360445E-2,-1.1857273E-1,-1.0602828E-1,1.1416862E-1,1.7967305E-1,-9.6615635E-2,-1.2519325E-1,4.0097073E-2,-9.6679814E-2,-1.5525213E-1],"split_indices":[14,4,4,10,1,7,12,5,0,10,19,20,4,14,14,3,0,1,1,12,1,19,0,1,14,5,10,11,7,11,21,0,0,0,0,0,0,0,0,0,0,0,0,0,0,0,0,0,0,0,0,0,0,0,0,0,0,0,0,0,0],"split_type":[0,0,0,0,0,0,0,0,0,0,0,0,0,0,0,0,0,0,0,0,0,0,0,0,0,0,0,0,0,0,0,0,0,0,0,0,0,0,0,0,0,0,0,0,0,0,0,0,0,0,0,0,0,0,0,0,0,0,0,0,0],"sum_hessian":[8.826228E4,3.980977E4,4.845251E4,7.727092E2,3.903706E4,3.3722902E4,1.472961E4,2.7401672E2,4.986925E2,3.881935E4,2.1770847E2,2.5377748E4,8.345153E3,5.523068E3,9.206543E3,1.9304509E2,8.097164E1,4.1839783E2,8.029468E1,3.8704492E4,1.1485825E2,1.7766148E2,4.004699E1,7.183421E2,2.4659406E4,6.3020005E3,2.043153E3,3.0510945E3,2.4719736E3,2.3988745E3,6.807668E3,1.7449284E2,1.8552235E1,3.2970734E2,8.8690475E1,3.691418E1,4.3380493E1,3.5264777E4,3.4397173E3,1.1313709E2,1.721163E0,1.7327351E2,4.3879566E0,1.9623284E0,3.808466E1,5.2834015E2,1.9000194E2,2.6674167E3,2.199199E4,1.0264432E3,5.275557E3,7.875917E2,1.2555613E3,4.7542502E2,2.5756694E3,1.584982E2,2.3134753E3,1.6025638E3,7.9631055E2,1.9260413E3,4.881627E3],"tree_param":{"num_deleted":"0","num_feature":"30","num_nodes":"61","size_leaf_vector":"1"}},{"base_weights":[9.815543E-4,1.4547014E0,-1.0256898E0,1.5349526E0,-1.0495191E0,-1.2592452E0,2.466954E-1,-1.4480819E0,1.5535833E0,1.171032E0,-1.4689379E0,-1.3783147E0,-6.403204E-1,-3.808041E-1,1.2453183E0,1.2699997E0,-1.5790933E-1,1.5681384E0,-1.6411977E-1,-1.6038194E-1,1.4361749E0,1.4672266E0,-1.577649E0,-3.9743546E-1,-1.4185692E0,-1.2512694E-1,-1.6629926E0,3.785385E-1,-8.2352525E-1,1.4187568E0,-1.7662643E0,6.1019766E-3,1.4187978E-1,-1.5236832E-1,1.5700583E-1,1.5499254E-1,-1.6412789E-1,-1.6041343E-1,1.5309766E-1,-1.697862E-2,1.5311767E-1,-6.767269E-2,-1.6207772E-1,-1.564746E-1,4.9813375E-2,-1.4482825E-1,-7.48313E-2,-1.4461106E-1,3.3717316E-2,-1.6364078E-1,-2.0062418E-1,9.673788E-2,-4.3306645E-2,7.052287E-2,-1.089972E-1,-8.814624E-2,1.5201229E-1,1.8977357E-2,-1.8337291E-1],"categories":[],"categories_nodes":[],"categories_segments":[],"categories_sizes":[],"default_left":[0,0,0,0,0,0,0,0,0,0,0,0,0,0,0,0,0,0,0,0,0,0,0,0,0,0,0,0,0,0,0,0,0,0,0,0,0,0,0,0,0,0,0,0,0,0,0,0,0,0,0,0,0,0,0,0,0,0,0],"id":3,"left_children":[1,3,5,7,9,11,13,15,17,19,21,23,25,27,29,31,-1,33,35,-1,37,39,41,43,45,47,49,51,53,55,57,-1,-1,-1,-1,-1,-1,-1,-1,-1,-1,-1,-1,-1,-1,-1,-1,-1,-1,-1,-1,-1,-1,-1,-1,-1,-1,-1,-1],"loss_changes":[1.27494445E5,7.1074375E3,1.487843E4,1.9063125E3,1.024811E3,3.1165078E3,4.866601E3,7.791333E1,8.515156E2,1.311155E2,2.9738843E2,1.4001719E3,3.5966658E3,1.6037587E3,1.5678252E3,1.7764626E0,0E0,2.0278906E2,7.29194E2,0E0,4.8669403E1,3.7694168E0,3.355835E1,1.4642201E3,6.775703E2,2.7735605E3,1.7586426E1,8.402672E2,1.2281798E3,6.6217285E2,2.1942047E1,0E0,0E0,0E0,0E0,0E0,0E0,0E0,0E0,0E0,0E0,0E0,0E0,0E0,0E0,0E0,0E0,0E0,0E0,0E0,0E0,0E0,0E0,0E0,0E0,0E0,0E0,0E0,0E0],"parents":[2147483647,0,0,1,1,2,2,3,3,4,4,5,5,6,6,7,7,8,8,9,9,10,10,11,11,12,12,13,13,14,14,15,15,17,17,18,18,20,20,21,21,22,22,23,23,24,24,25,25,26,26,27,27,28,28,29,29,30,30],"right_children":[2,4,6,8,10,12,14,16,18,20,22,24,26,28,30,32,-1,34,36,-1,38,40,42,44,46,48,50,52,54,56,58,-1,-1,-1,-1,-1,-1,-1,-1,-1,-1,-1,-1,-1,-1,-1,-1,-1,-1,-1,-1,-1,-1,-1,-1,-1,-1,-1,-1],"split_conditions":[-2.303674E0,7.964157E-1,1.162755E0,-2.9357797E-1,-1.5879066E0,8.7244624E-1,1.3454679E0,-3.5880814E0,2.5773188E-1,5.351847E-1,-3.096609E0,-8.908022E-1,1.3933226E-1,-1.0410233E-1,3.533098E-1,1.1304015E0,-1.5790933E-1,-4.2253044E-1,-1.8883544E0,-1.6038194E-1,-6.8966806E-1,-2.8681E0,8.463673E-1,-1.12211615E-1,1.3321859E0,4.3820746E-2,2.6088045E0,-3.6693686E-1,-7.447108E-1,5.699403E-1,-2.1249099E0,6.1019766E-3,1.4187978E-1,-1.5236832E-1,1.5700583E-1,1.5499254E-1,-1.6412789E-1,-1.6041343E-1,1.5309766E-1,-1.697862E-2,1.5311767E-1,-6.767269E-2,-1.6207772E-1,-1.564746E-1,4.9813375E-2,-1.4482825E-1,-7.48313E-2,-1.4461106E-1,3.3717316E-2,-1.6364078E-1,-2.0062418E-1,9.673788E-2,-4.3306645E-2,7.052287E-2,-1.089972E-1,-8.814624E-2,1.5201229E-1,1.8977357E-2,-1.8337291E-1],"split_indices":[12,9,4,4,3,17,17,16,3,2,17,20,8,8,8,2,0,11,19,0,24,8,9,4,29,18,17,12,3,18,12,0,0,0,0,0,0,0,0,0,0,0,0,0,0,0,0,0,0,0,0,0,0,0,0,0,0,0,0],"split_type":[0,0,0,0,0,0,0,0,0,0,0,0,0,0,0,0,0,0,0,0,0,0,0,0,0,0,0,0,0,0,0,0,0,0,0,0,0,0,0,0,0,0,0,0,0,0,0,0,0,0,0,0,0,0,0,0,0,0,0],"sum_hessian":[8.542184E4,3.535722E4,5.006463E4,3.4259703E4,1.0975139E3,4.2300145E4,7.764484E3,2.1216455E2,3.404754E4,1.7408015E2,9.234338E2,3.5474324E4,6.8258193E3,4.7686504E3,2.9958335E3,9.356317E0,2.0280824E2,3.3761543E4,2.8599597E2,1.474261E1,1.5933754E2,3.252319E1,8.909106E2,1.398876E3,3.407545E4,4.5398784E3,2.2859407E3,1.7563517E3,3.0122988E3,2.8331973E3,1.6263629E2,1.1798836E0,8.176433E0,2.0458714E1,3.3741086E4,1.323603E2,1.5363565E2,4.33673E0,1.5500081E2,1.1605327E0,3.1362656E1,4.1463116E1,8.494475E2,6.069773E2,7.9189874E2,3.2627861E4,1.4475862E3,1.1763706E3,3.363508E3,2.1269727E3,1.5896793E2,1.0177534E3,7.385982E2,4.4684607E2,2.565453E3,1.1925871E2,2.7139385E3,5.361951E0,1.5727434E2],"tree_param":{"num_deleted":"0","num_feature":"30","num_nodes":"59","size_leaf_vector":"1"}},{"base_weights":[1.1435476E-3,1.386736E0,-1.1204134E0,-1.3495208E0,1.4196265E0,-1.356061E0,-5.9913E-1,1.0893523E0,-1.3787549E0,1.4902747E0,8.107621E-1,-1.4443318E0,-1.065065E0,1.0666532E-2,-1.1115006E0,1.1928313E-1,3.5688825E-2,-1.5146975E-1,-8.361389E-1,-1.7659545E-1,1.490972E0,8.217126E-2,1.3628913E0,-9.1334015E-1,-1.4621716E0,-1.3162447E0,-1.7890187E-1,8.2144916E-1,-5.4909027E-1,-3.3799228E-1,-1.3066975E0,-1.4232437E-1,4.5627397E-2,1.491518E-1,-1.8626879E-1,-1.876931E-1,6.42406E-2,1.4160332E-1,-1.5236358E-1,-1.16433285E-1,1.5041198E-1,-1.217924E-1,-1.4882968E-1,-8.215069E-2,-1.4692472E-1,7.831646E-2,-1.0369378E-1,-1.5145577E-1,1.0869684E-1,1.4701865E-2,-1.1019956E-1,-1.3238822E-1,2.7431164E-2,3.7045408E-2,-1.361245E-1],"categories":[],"categories_nodes":[],"categories_segments":[],"categories_sizes":[],"default_left":[0,0,0,0,0,0,0,0,0,0,0,0,0,0,0,0,0,0,0,0,0,0,0,0,0,0,0,0,0,0,0,0,0,0,0,0,0,0,0,0,0,0,0,0,0,0,0,0,0,0,0,0,0,0,0],"id":4,"left_children":[1,3,5,7,9,11,13,15,17,19,21,23,25,27,29,-1,-1,-1,31,-1,33,35,37,39,41,43,45,47,49,51,53,-1,-1,-1,-1,-1,-1,-1,-1,-1,-1,-1,-1,-1,-1,-1,-1,-1,-1,-1,-1,-1,-1,-1,-1],"loss_changes":[1.27883266E5,3.3149375E3,5.5858047E3,3.2713013E1,1.5635078E3,8.0295703E2,4.4242935E3,9.634972E-3,3.0674316E1,7.664844E1,1.5221672E3,2.2626953E2,1.6231309E3,2.935198E3,1.1613809E3,0E0,0E0,0E0,6.816707E1,0E0,6.2445312E1,1.7929116E3,3.323733E2,4.772624E2,1.4651172E2,4.2892383E2,1.3313699E3,1.6400116E3,1.4727313E3,9.3718274E2,5.6258203E2,0E0,0E0,0E0,0E0,0E0,0E0,0E0,0E0,0E0,0E0,0E0,0E0,0E0,0E0,0E0,0E0,0E0,0E0,0E0,0E0,0E0,0E0,0E0,0E0],"parents":[2147483647,0,0,1,1,2,2,3,3,4,4,5,5,6,6,7,7,8,8,9,9,10,10,11,11,12,12,13,13,14,14,18,18,20,20,21,21,22,22,23,23,24,24,25,25,26,26,27,27,28,28,29,29,30,30],"right_children":[2,4,6,8,10,12,14,16,18,20,22,24,26,28,30,-1,-1,-1,32,-1,34,36,38,40,42,44,46,48,50,52,54,-1,-1,-1,-1,-1,-1,-1,-1,-1,-1,-1,-1,-1,-1,-1,-1,-1,-1,-1,-1,-1,-1,-1,-1],"split_conditions":[-1.8703576E0,-3.1315568E-1,5.2980113E-1,-3.4585652E0,-1.7309262E0,5.4274577E-1,-1.0904761E-1,7.503074E-1,1.2988557E0,-4.7928303E-1,1.3522552E0,-9.429702E-1,1.1773738E-1,-2.3654728E-1,-3.3887628E-1,1.1928313E-1,3.5688825E-2,-1.5146975E-1,-1.9539441E0,-1.7659545E-1,3.1460983E-1,-3.404355E-1,6.1790913E-1,2.0144806E0,-8.981636E-1,-8.4851956E-1,-5.4915684E-1,-1.0561545E0,-1.0410233E-1,5.8474176E-2,-1.9743876E0,-1.4232437E-1,4.5627397E-2,1.491518E-1,-1.8626879E-1,-1.876931E-1,6.42406E-2,1.4160332E-1,-1.5236358E-1,-1.16433285E-1,1.5041198E-1,-1.217924E-1,-1.4882968E-1,-8.215069E-2,-1.4692472E-1,7.831646E-2,-1.0369378E-1,-1.5145577E-1,1.0869684E-1,1.4701865E-2,-1.1019956E-1,-1.3238822E-1,2.7431164E-2,3.7045408E-2,-1.361245E-1],"split_indices":[14,4,4,10,10,7,12,21,0,11,4,20,4,14,29,0,0,0,14,0,12,29,10,22,14,10,10,11,8,16,21,0,0,0,0,0,0,0,0,0,0,0,0,0,0,0,0,0,0,0,0,0,0,0,0],"split_type":[0,0,0,0,0,0,0,0,0,0,0,0,0,0,0,0,0,0,0,0,0,0,0,0,0,0,0,0,0,0,0,0,0,0,0,0,0,0,0,0,0,0,0,0,0,0,0,0,0,0,0,0,0,0,0],"sum_hessian":[8.228985E4,3.6811723E4,4.547813E4,4.3675415E2,3.637497E4,3.1318791E4,1.4159339E4,4.74371E0,4.3201044E2,3.2591807E4,3.783163E3,2.4026592E4,7.292198E3,6.465464E3,7.6938745E3,3.6057835E0,1.1379267E0,3.4402878E2,8.7981674E1,6.4370403E0,3.2585371E4,1.6314489E3,2.151714E3,7.8268243E2,2.324391E4,5.6813535E3,1.6108446E3,2.640439E3,3.825025E3,1.5508888E3,6.142986E3,6.0429234E1,2.755244E1,3.2580621E4,4.7486324E0,3.6226895E2,1.2691798E3,2.113317E3,3.8397354E1,7.0953345E2,7.314896E1,2.2505947E3,2.0993316E4,1.3434938E3,4.33786E3,7.594284E2,8.5141614E2,2.6901074E2,2.3714282E3,1.6935615E3,2.1314634E3,5.937351E2,9.571536E2,1.9331789E2,5.949668E3],"tree_param":{"num_deleted":"0","num_feature":"30","num_nodes":"55","size_leaf_vector":"1"}},{"base_weights":[-1.3190153E-4,1.3735921E0,-9.2922515E-1,-1.4620323E0,1.4089762E0,-1.1327202E0,1.5000358E-1,5.2477803E-2,-1.4701365E-1,-1.6204718E-1,1.4157773E0,-1.3167819E0,-8.2009226E-1,-5.4563916E-1,7.529502E-1,1.4201777E0,-7.4316335E-1,-1.3379767E0,-3.7910894E-1,-1.4574294E-1,-1.0815408E0,2.202895E-1,-1.0492712E0,1.0632821E0,-5.5069906E-1,1.4222258E-1,-7.202686E-2,-1.6391806E-1,1.05287634E-1,-1.4227338E-1,-1.177531E-1,6.702625E-2,-1.4061812E-1,2.3556978E-2,-1.510772E-1,2.967894E-2,-1.2448906E-1,4.7047433E-2,-1.6241044E-1,-1.4958051E-1,-1.1286802E-2,1.2295013E-1,-8.355873E-2,5.786484E-2,-1.24287896E-1],"categories":[],"categories_nodes":[],"categories_segments":[],"categories_sizes":[],"default_left":[0,0,0,0,0,0,0,0,0,0,0,0,0,0,0,0,0,0,0,0,0,0,0,0,0,0,0,0,0,0,0,0,0,0,0,0,0,0,0,0,0,0,0,0,0],"id":5,"left_children":[1,3,5,7,9,11,13,-1,-1,-1,15,17,19,21,23,25,27,29,31,33,35,37,39,41,43,-1,-1,-1,-1,-1,-1,-1,-1,-1,-1,-1,-1,-1,-1,-1,-1,-1,-1,-1,-1],"loss_changes":[1.0020844E5,3.1804102E3,1.028632E4,7.0653687E0,6.4691406E2,2.2664805E3,3.117312E3,0E0,0E0,0E0,2.976328E2,4.9239453E2,2.5749482E3,1.3314203E3,1.6112515E3,1.3760156E2,1.0497088E2,3.2814062E2,5.933041E2,2.1249417E3,2.3700635E3,6.328478E2,8.7044604E2,1.01611255E3,5.996358E2,0E0,0E0,0E0,0E0,0E0,0E0,0E0,0E0,0E0,0E0,0E0,0E0,0E0,0E0,0E0,0E0,0E0,0E0,0E0,0E0],"parents":[2147483647,0,0,1,1,2,2,3,3,4,4,5,5,6,6,10,10,11,11,12,12,13,13,14,14,15,15,16,16,17,17,18,18,19,19,20,20,21,21,22,22,23,23,24,24],"right_children":[2,4,6,8,10,12,14,-1,-1,-1,16,18,20,22,24,26,28,30,32,34,36,38,40,42,44,-1,-1,-1,-1,-1,-1,-1,-1,-1,-1,-1,-1,-1,-1,-1,-1,-1,-1,-1,-1],"split_conditions":[-1.7309262E0,-3.326853E-1,1.162755E0,-5.030935E0,-5.3461075E-1,2.5306308E-1,2.8864413E-1,5.2477803E-2,-1.4701365E-1,-1.6204718E-1,3.1460983E-1,1.6893688E0,-4.5657688E-1,-9.913846E-2,5.9401184E-1,3.0134807E0,7.825377E-1,-2.1332732E-1,-5.529516E-1,1.6155522E-1,-5.449116E-1,5.6831604E-1,5.5097634E-1,3.4323576E-1,-4.3705916E-1,1.4222258E-1,-7.202686E-2,-1.6391806E-1,1.05287634E-1,-1.4227338E-1,-1.177531E-1,6.702625E-2,-1.4061812E-1,2.3556978E-2,-1.510772E-1,2.967894E-2,-1.2448906E-1,4.7047433E-2,-1.6241044E-1,-1.4958051E-1,-1.1286802E-2,1.2295013E-1,-8.355873E-2,5.786484E-2,-1.24287896E-1],"split_indices":[10,4,4,17,11,4,11,0,0,0,12,7,10,8,10,7,19,4,26,8,20,1,5,8,20,0,0,0,0,0,0,0,0,0,0,0,0,0,0,0,0,0,0,0,0],"split_type":[0,0,0,0,0,0,0,0,0,0,0,0,0,0,0,0,0,0,0,0,0,0,0,0,0,0,0,0,0,0,0,0,0,0,0,0,0,0,0,0,0,0,0,0,0],"sum_hessian":[7.85117E4,3.1676088E4,4.683561E4,3.8989862E2,3.128619E4,3.940543E4,7.430183E3,1.3249003E0,3.8857373E2,6.9548134E1,3.1216643E4,2.4800674E4,1.4604754E4,3.4499443E3,3.9802385E3,3.1153486E4,6.3155937E1,2.425206E4,5.4861255E2,4.0807944E3,1.052396E4,1.368809E3,2.0811353E3,3.215078E3,7.6516064E2,3.1124041E4,2.9445349E1,4.2193546E1,2.096239E1,1.5863916E4,8.3881455E3,2.715323E2,2.7708026E2,3.1904019E3,8.903924E2,1.114987E3,9.408973E3,1.2059689E3,1.6284003E2,1.4087572E3,6.723782E2,2.9566204E3,2.5845767E2,2.9082315E2,4.7433746E2],"tree_param":{"num_deleted":"0","num_feature":"30","num_nodes":"45","size_leaf_vector":"1"}},{"base_weights":[-2.7456888E-5,1.2634238E0,-9.956234E-1,1.3653053E0,5.4662186E-1,-4.4489354E-1,-1.1160765E0,1.3668312E0,-1.3784356E-1,8.205537E-1,-8.860189E-1,8.335095E-2,-1.1263951E0,-4.7362503E-1,-1.2079626E0,-1.5702199E0,1.3674128E0,-9.497353E-1,1.0468525E0,-1.2591605E0,3.9019248E-1,5.4756075E-1,-1.332484E0,4.721507E-1,-1.3030369E0,1.1998308E0,-6.002451E-1,-1.2534577E0,-7.257189E-1,-1.877536E-2,-1.8102206E-1,1.3693498E-1,1.2317965E-1,-1.5861967E-1,6.922247E-2,1.1414515E-1,-1.9082122E-1,1.333996E-1,-1.3722162E-1,-1.6149904E-1,1.15638174E-1,8.879921E-2,-7.773421E-2,-1.438446E-1,-9.208047E-2,1.2100263E-1,-6.810199E-2,6.152324E-2,-1.3208419E-1,1.4107741E-1,-1.3986143E-1,6.9698035E-3,-1.0247177E-1,-8.535225E-3,-1.2716185E-1,-2.4154494E-2,-1.3833664E-1],"categories":[],"categories_nodes":[],"categories_segments":[],"categories_sizes":[],"default_left":[0,0,0,0,0,0,0,0,0,0,0,0,0,0,0,0,0,0,0,0,0,0,0,0,0,0,0,0,0,0,0,0,0,0,0,0,0,0,0,0,0,0,0,0,0,0,0,0,0,0,0,0,0,0,0,0,0],"id":6,"left_children":[1,3,5,7,9,11,13,15,-1,17,19,21,23,25,27,29,31,33,35,37,39,41,43,45,47,49,51,53,55,-1,-1,-1,-1,-1,-1,-1,-1,-1,-1,-1,-1,-1,-1,-1,-1,-1,-1,-1,-1,-1,-1,-1,-1,-1,-1,-1,-1],"loss_changes":[9.4029016E4,2.405125E3,2.7728867E3,1.2264453E2,1.6103105E3,2.7017397E3,2.0244648E3,5.1390625E1,0E0,1.3805459E3,3.1422772E2,2.7799426E3,9.259419E2,9.105922E2,6.575156E2,1.7083235E0,5.8828125E0,4.0953302E2,8.5584546E2,1.5135095E2,2.320316E2,1.4373359E3,4.423401E1,2.7890994E2,1.01609375E2,1.6771555E2,1.1354663E3,5.816289E2,8.2421375E2,0E0,0E0,0E0,0E0,0E0,0E0,0E0,0E0,0E0,0E0,0E0,0E0,0E0,0E0,0E0,0E0,0E0,0E0,0E0,0E0,0E0,0E0,0E0,0E0,0E0,0E0,0E0,0E0],"parents":[2147483647,0,0,1,1,2,2,3,3,4,4,5,5,6,6,7,7,9,9,10,10,11,11,12,12,13,13,14,14,15,15,16,16,17,17,18,18,19,19,20,20,21,21,22,22,23,23,24,24,25,25,26,26,27,27,28,28],"right_children":[2,4,6,8,10,12,14,16,-1,18,20,22,24,26,28,30,32,34,36,38,40,42,44,46,48,50,52,54,56,-1,-1,-1,-1,-1,-1,-1,-1,-1,-1,-1,-1,-1,-1,-1,-1,-1,-1,-1,-1,-1,-1,-1,-1,-1,-1,-1,-1],"split_conditions":[-1.8703576E0,-1.6707482E0,-7.2579706E-1,5.4506254E-1,3.3522412E-1,3.6734313E-1,-3.7662074E-1,-2.8670302E-1,-1.3784356E-1,-5.4680523E-2,1.931609E-1,8.1410027E-1,-1.7004156E0,-3.5019085E-1,8.198992E-1,-3.1817308E-1,2.8853927E0,5.9763823E-2,9.08492E-1,-2.3948452E0,1.4932868E0,-1.5138905E-3,2.2870687E-1,-8.4851956E-1,-2.6965408E0,1.5764134E-1,-1.4844827E-1,-1.1973057E0,3.3077206E-2,-1.877536E-2,-1.8102206E-1,1.3693498E-1,1.2317965E-1,-1.5861967E-1,6.922247E-2,1.1414515E-1,-1.9082122E-1,1.333996E-1,-1.3722162E-1,-1.6149904E-1,1.15638174E-1,8.879921E-2,-7.773421E-2,-1.438446E-1,-9.208047E-2,1.2100263E-1,-6.810199E-2,6.152324E-2,-1.3208419E-1,1.4107741E-1,-1.3986143E-1,6.9698035E-3,-1.0247177E-1,-8.535225E-3,-1.2716185E-1,-2.4154494E-2,-1.3833664E-1],"split_indices":[14,12,14,10,22,0,8,11,0,28,29,3,3,29,7,5,17,21,15,7,17,10,5,10,7,7,2,20,12,0,0,0,0,0,0,0,0,0,0,0,0,0,0,0,0,0,0,0,0,0,0,0,0,0,0,0,0],"split_type":[0,0,0,0,0,0,0,0,0,0,0,0,0,0,0,0,0,0,0,0,0,0,0,0,0,0,0,0,0,0,0,0,0,0,0,0,0,0,0,0,0,0,0,0,0,0,0,0,0,0,0,0,0,0,0,0,0],"sum_hessian":[7.474956E4,3.2943133E4,4.180643E4,2.8842719E4,4.100414E3,7.503584E3,3.4302844E4,2.8827188E4,1.5530031E1,3.4425913E3,6.5782263E2,4.2275835E3,3.2760005E3,4.2930137E3,3.000983E4,5.1731224E0,2.8822016E4,3.898304E2,3.052761E3,5.0901035E2,1.4881227E2,3.1841948E3,1.0433887E3,3.2581525E2,2.9501853E3,3.0138092E2,3.9916328E3,2.7421299E4,2.5885325E3,1.02887E0,4.1442523E0,2.8407164E4,4.1485007E2,2.8095844E2,1.0887198E2,2.9586604E3,9.41004E1,2.0813452E1,4.881969E2,4.0835213E1,1.07977066E2,2.5335369E3,6.506579E2,8.278217E2,2.1556702E2,1.986539E2,1.2716133E2,2.6822475E1,2.9233628E3,2.7917444E2,2.2206478E1,1.5484915E3,2.4431414E3,4.1988748E2,2.700141E4,1.4916877E3,1.0968447E3],"tree_param":{"num_deleted":"0","num_feature":"30","num_nodes":"57","size_leaf_vector":"1"}},{"base_weights":[1.1312574E-3,1.2060877E0,-9.488889E-1,-6.242684E-1,1.2509907E0,-1.1812093E0,-4.667629E-1,1.3407034E-2,-1.3814151E0,1.3164933E0,7.1694976E-1,-8.908699E-1,-1.2531936E0,5.3109437E-2,-9.296092E-1,-1.2837402E0,6.53697E-1,-9.619878E-1,-1.3984876E0,-9.1914594E-1,1.3172728E0,9.592047E-1,-8.080528E-1,3.2933433E-2,-1.0861443E0,-5.4018164E-1,-1.2723315E0,5.3541785E-1,-5.8173966E-1,-2.4611148E-1,-1.1375012E0,-1.3944806E-1,-3.5752963E-2,-6.95657E-2,1.287976E-1,-1.3872199E-1,3.2148965E-2,-1.3629264E-1,-1.5853274E-1,1.0826484E-1,-1.7810762E-1,1.3175432E-1,-1.3751166E-1,1.0759294E-1,-6.195397E-2,-1.7772727E-1,9.5107816E-2,1.4366819E-1,-1.3211583E-1,-1.22955374E-1,-1.0801074E-2,6.572216E-2,-1.4130667E-1,-5.9063733E-2,-1.2863936E-1,8.341292E-2,-1.1109722E-1,7.4631244E-2,-8.963898E-2,-1.0879644E-1,2.848824E-2,3.4279954E-2,-1.1851827E-1],"categories":[],"categories_nodes":[],"categories_segments":[],"categories_sizes":[],"default_left":[0,0,0,0,0,0,0,0,0,0,0,0,0,0,0,0,0,0,0,0,0,0,0,0,0,0,0,0,0,0,0,0,0,0,0,0,0,0,0,0,0,0,0,0,0,0,0,0,0,0,0,0,0,0,0,0,0,0,0,0,0,0,0],"id":7,"left_children":[1,3,5,7,9,11,13,15,17,19,21,23,25,27,29,31,33,35,37,39,41,43,45,47,49,51,53,55,57,59,61,-1,-1,-1,-1,-1,-1,-1,-1,-1,-1,-1,-1,-1,-1,-1,-1,-1,-1,-1,-1,-1,-1,-1,-1,-1,-1,-1,-1,-1,-1,-1,-1],"loss_changes":[8.113769E4,2.5689258E3,4.4385547E3,3.6158624E2,1.0659492E3,5.5783203E2,3.1014236E3,3.3928867E2,1.1062622E0,4.855078E1,1.2326156E3,9.591626E2,2.9171094E2,1.8593624E3,9.685928E2,1.3349197E1,2.3496783E2,9.503107E0,1.0498047E-2,1.9281288E1,2.1582031E1,5.309712E2,7.8191565E2,1.7672363E3,6.1553906E2,5.8817896E2,1.9927734E2,1.6980054E3,1.0962107E3,7.1174615E2,3.6941504E2,0E0,0E0,0E0,0E0,0E0,0E0,0E0,0E0,0E0,0E0,0E0,0E0,0E0,0E0,0E0,0E0,0E0,0E0,0E0,0E0,0E0,0E0,0E0,0E0,0E0,0E0,0E0,0E0,0E0,0E0,0E0,0E0],"parents":[2147483647,0,0,1,1,2,2,3,3,4,4,5,5,6,6,7,7,8,8,9,9,10,10,11,11,12,12,13,13,14,14,15,15,16,16,17,17,18,18,19,19,20,20,21,21,22,22,23,23,24,24,25,25,26,26,27,27,28,28,29,29,30,30],"right_children":[2,4,6,8,10,12,14,16,18,20,22,24,26,28,30,32,34,36,38,40,42,44,46,48,50,52,54,56,58,60,62,-1,-1,-1,-1,-1,-1,-1,-1,-1,-1,-1,-1,-1,-1,-1,-1,-1,-1,-1,-1,-1,-1,-1,-1,-1,-1,-1,-1,-1,-1,-1,-1],"split_conditions":[-1.7644464E0,-6.089719E-2,5.2980113E-1,-5.6641E-1,-1.2757766E0,-8.622497E-1,-9.515524E-2,-2.719083E-1,-4.812043E-1,-6.9548374E-1,5.6602937E-1,-6.518855E-1,-1.1973057E0,1.8156266E-1,-3.3327895E-1,-1.8703576E0,-3.326853E-1,-1.8703576E0,-2.1332732E-1,-1.442244E0,2.5773188E-1,3.3522412E-1,2.3616847E-1,-1.1155482E-1,5.143553E-1,-7.629833E-1,-1.5228494E0,1.4505294E-1,-5.4229945E-1,5.8474176E-2,-2.8681E0,-1.3944806E-1,-3.5752963E-2,-6.95657E-2,1.287976E-1,-1.3872199E-1,3.2148965E-2,-1.3629264E-1,-1.5853274E-1,1.0826484E-1,-1.7810762E-1,1.3175432E-1,-1.3751166E-1,1.0759294E-1,-6.195397E-2,-1.7772727E-1,9.5107816E-2,1.4366819E-1,-1.3211583E-1,-1.22955374E-1,-1.0801074E-2,6.572216E-2,-1.4130667E-1,-5.9063733E-2,-1.2863936E-1,8.341292E-2,-1.1109722E-1,7.4631244E-2,-8.963898E-2,-1.0879644E-1,2.848824E-2,3.4279954E-2,-1.1851827E-1],"split_indices":[14,4,4,3,12,13,12,29,3,11,15,14,20,14,29,14,4,14,4,15,3,22,29,9,29,16,14,8,8,16,8,0,0,0,0,0,0,0,0,0,0,0,0,0,0,0,0,0,0,0,0,0,0,0,0,0,0,0,0,0,0,0,0],"split_type":[0,0,0,0,0,0,0,0,0,0,0,0,0,0,0,0,0,0,0,0,0,0,0,0,0,0,0,0,0,0,0,0,0,0,0,0,0,0,0,0,0,0,0,0,0,0,0,0,0,0,0,0,0,0,0,0,0,0,0,0,0,0,0],"sum_hessian":[7.087714E4,3.1246027E4,3.9631117E4,7.47876E2,3.0498152E4,2.6743072E4,1.2888044E4,4.0650024E2,3.413757E2,2.71648E4,3.3333506E3,5.315812E3,2.142726E4,6.0704995E3,6.817544E3,1.340093E2,2.7249094E2,1.5594974E1,3.2578073E2,9.057341E0,2.7155744E4,2.8767363E3,4.5661423E2,9.2773236E2,4.38808E3,5.6085693E2,2.0866404E4,3.4497825E3,2.6207168E3,1.5905133E3,5.227031E3,1.19246284E2,1.4763006E1,8.709974E1,1.853912E2,1.1653271E1,3.9417024E0,2.8065778E2,4.5122967E1,2.6490247E0,6.4083157E0,2.7153527E4,2.216854E0,2.678984E3,1.977525E2,2.9439984E2,1.6221439E2,4.55484E2,4.7224835E2,3.826761E3,5.613188E2,2.3657541E2,3.2428156E2,4.2260364E2,2.04438E4,2.9204133E3,5.2936926E2,5.017205E2,2.1189963E3,6.147779E2,9.757354E2,1.6291907E2,5.064112E3],"tree_param":{"num_deleted":"0","num_feature":"30","num_nodes":"63","size_leaf_vector":"1"}},{"base_weights":[1.5651693E-3,1.1644906E0,-8.9969426E-1,1.2750852E0,4.4854972E-1,-1.1301833E0,-4.3351543E-1,-1.3324085E-1,1.2769557E0,-1.6896856E-1,1.1479304E0,-1.2321311E0,-8.339186E-1,4.0890757E-2,-8.9439595E-1,1.2777017E0,-1.5218846E-1,2.960861E-1,-1.2753588E0,1.2005923E0,-1.4471392E-1,-7.414073E-1,-1.2541324E0,-1.7595933E-1,-1.2212952E0,7.0258325E-1,-3.504007E-1,-4.402146E-1,-1.113983E0,1.2779365E-1,-1.5453319E-1,7.315324E-2,-1.1860057E-1,-1.719292E-1,-3.8840763E-2,-2.4379554E-1,1.2228159E-1,1.4380068E-1,-9.793659E-2,-1.0243338E-1,-1.2830786E-1,4.3952387E-2,-9.7208336E-2,-1.3027288E-1,4.9620252E-2,9.716369E-2,-7.787066E-2,-6.5737136E-2,6.931435E-2,-1.3818249E-1,-2.5194215E-3,-1.8759474E-2,-1.168587E-1],"categories":[],"categories_nodes":[],"categories_segments":[],"categories_sizes":[],"default_left":[0,0,0,0,0,0,0,0,0,0,0,0,0,0,0,0,0,0,0,0,0,0,0,0,0,0,0,0,0,0,0,0,0,0,0,0,0,0,0,0,0,0,0,0,0,0,0,0,0,0,0,0,0],"id":8,"left_children":[1,3,5,7,9,11,13,-1,15,17,19,21,23,25,27,29,-1,31,33,35,-1,37,39,41,43,45,47,49,51,-1,-1,-1,-1,-1,-1,-1,-1,-1,-1,-1,-1,-1,-1,-1,-1,-1,-1,-1,-1,-1,-1,-1,-1],"loss_changes":[7.0301555E4,2.318293E3,4.059912E3,1.2542578E2,1.693249E3,7.627031E2,2.7339585E3,0E0,5.4875E1,1.0720522E3,2.5297217E2,2.0216016E2,1.6505503E3,1.5958126E3,6.320552E2,1.878125E1,0E0,9.477799E2,2.4210791E2,1.4872314E2,0E0,4.2128305E2,1.1843164E2,1.1770541E3,5.7078125E2,9.135635E2,1.2411802E3,8.083903E2,2.1601514E2,0E0,0E0,0E0,0E0,0E0,0E0,0E0,0E0,0E0,0E0,0E0,0E0,0E0,0E0,0E0,0E0,0E0,0E0,0E0,0E0,0E0,0E0,0E0,0E0],"parents":[2147483647,0,0,1,1,2,2,3,3,4,4,5,5,6,6,8,8,9,9,10,10,11,11,12,12,13,13,14,14,15,15,17,17,18,18,19,19,21,21,22,22,23,23,24,24,25,25,26,26,27,27,28,28],"right_children":[2,4,6,8,10,12,14,-1,16,18,20,22,24,26,28,30,-1,32,34,36,-1,38,40,42,44,46,48,50,52,-1,-1,-1,-1,-1,-1,-1,-1,-1,-1,-1,-1,-1,-1,-1,-1,-1,-1,-1,-1,-1,-1,-1,-1],"split_conditions":[-1.7644464E0,-1.7309262E0,5.2980113E-1,-3.5053536E-1,1.3903786E0,5.163472E-1,-5.6064643E-2,-1.3324085E-1,3.1460983E-1,6.0327154E-1,6.429104E-1,-8.4643584E-1,-4.020933E-1,-3.2633513E-1,-1.1388849E-1,2.5002448E-2,-1.5218846E-1,-4.2204878E-1,1.0784845E0,-1.9625821E0,-1.4471392E-1,-1.8678666E0,-8.356295E-1,-2.673345E-1,1.0404588E0,3.916593E-1,4.7579408E-1,-9.041701E-1,-1.4468495E0,1.2779365E-1,-1.5453319E-1,7.315324E-2,-1.1860057E-1,-1.719292E-1,-3.8840763E-2,-2.4379554E-1,1.2228159E-1,1.4380068E-1,-9.793659E-2,-1.0243338E-1,-1.2830786E-1,4.3952387E-2,-9.7208336E-2,-1.3027288E-1,4.9620252E-2,9.716369E-2,-7.787066E-2,-6.5737136E-2,6.931435E-2,-1.3818249E-1,-2.5194215E-3,-1.8759474E-2,-1.168587E-1],"split_indices":[14,10,4,4,4,7,12,0,12,16,10,20,26,14,21,3,0,3,0,24,0,13,14,13,16,0,23,26,13,0,0,0,0,0,0,0,0,0,0,0,0,0,0,0,0,0,0,0,0,0,0,0,0],"split_type":[0,0,0,0,0,0,0,0,0,0,0,0,0,0,0,0,0,0,0,0,0,0,0,0,0,0,0,0,0,0,0,0,0,0,0,0,0,0,0,0,0,0,0,0,0,0,0,0,0,0,0,0,0],"sum_hessian":[6.707339E4,2.9285297E4,3.7788098E4,2.5366102E4,3.919194E3,2.5285145E4,1.2502954E4,1.7673578E1,2.5348428E4,2.0818142E3,1.8373799E3,1.8809457E4,6.4756875E3,6.16152E3,6.3414336E3,2.5342217E4,6.211573E0,1.4662362E3,6.155781E2,1.8013622E3,3.6017746E1,8.0861487E2,1.8000842E4,2.4002747E3,4.0754128E3,2.2893403E3,3.8721794E3,2.067708E3,4.2737256E3,2.5340656E4,1.5611259E0,1.1336656E3,3.3257047E2,4.0961896E2,2.0595918E2,1.0275696E1,1.7910864E3,7.9101105E1,7.2951373E2,2.0178485E3,1.5982993E4,1.3539694E3,1.0463054E3,3.8911587E3,1.8425415E2,1.9377262E3,3.516143E2,2.992323E3,8.7985657E2,6.318405E2,1.4358676E3,2.3813087E2,4.0355947E3],"tree_param":{"num_deleted":"0","num_feature":"30","num_nodes":"53","size_leaf_vector":"1"}},{"base_weights":[-5.628485E-4,1.1359316E0,-8.4905976E-1,1.2406812E0,4.3428728E-1,-1.0832902E0,-3.9397606E-1,-1.1582865E0,1.2425865E0,-1.6900499E-1,1.0940734E0,-1.1968495E0,-7.9828817E-1,-1.1170547E-1,-1.0556644E0,3.1004647E-2,-1.2655471E-1,2.5621423E-1,1.2451129E0,3.0168825E-1,-1.2306942E0,1.1423666E0,-1.343589E-1,-1.2057229E0,2.2869017E-2,-1.8180624E-1,-1.1499419E0,2.723561E-1,-7.6812714E-1,-1.0974756E0,1.7706382E0,1.0426519E-1,-1.8097527E-1,1.24529794E-1,-1.3100725E-1,8.598146E-2,-1.261792E-1,-1.6249536E-1,1.2439781E-1,1.1624694E-1,-2.472773E-1,-1.06972806E-1,-1.2493189E-1,-1.2715149E-1,1.822548E-1,3.7221454E-2,-8.980198E-2,-5.0621208E-2,-1.2664372E-1,5.7913102E-2,-6.419237E-2,-1.989231E-2,-1.317757E-1,5.0089277E-2,-1.15166925E-1,-1.3096623E-1,2.4804619E-1],"categories":[],"categories_nodes":[],"categories_segments":[],"categories_sizes":[],"default_left":[0,0,0,0,0,0,0,0,0,0,0,0,0,0,0,0,0,0,0,0,0,0,0,0,0,0,0,0,0,0,0,0,0,0,0,0,0,0,0,0,0,0,0,0,0,0,0,0,0,0,0,0,0,0,0,0,0],"id":9,"left_children":[1,3,5,7,9,11,13,15,17,19,21,23,25,27,29,-1,-1,31,33,35,37,39,-1,41,43,45,47,49,51,53,55,-1,-1,-1,-1,-1,-1,-1,-1,-1,-1,-1,-1,-1,-1,-1,-1,-1,-1,-1,-1,-1,-1,-1,-1,-1,-1],"loss_changes":[6.095041E4,1.9851875E3,3.857041E3,1.0888672E2,1.3977649E3,7.722637E2,2.2969219E3,3.4121246E0,5.821875E1,9.173495E2,1.9897571E2,1.849043E2,1.4761299E3,2.1738604E3,4.365127E2,0E0,0E0,1.014333E2,1.2703125E1,1.1111617E3,5.5212665E2,1.2243286E2,0E0,9.9208984E1,2.919969E2,9.8232355E2,3.24542E2,1.5262216E3,9.954774E2,3.145332E2,1.2130139E2,0E0,0E0,0E0,0E0,0E0,0E0,0E0,0E0,0E0,0E0,0E0,0E0,0E0,0E0,0E0,0E0,0E0,0E0,0E0,0E0,0E0,0E0,0E0,0E0,0E0,0E0],"parents":[2147483647,0,0,1,1,2,2,3,3,4,4,5,5,6,6,7,7,8,8,9,9,10,10,11,11,12,12,13,13,14,14,17,17,18,18,19,19,20,20,21,21,23,23,24,24,25,25,26,26,27,27,28,28,29,29,30,30],"right_children":[2,4,6,8,10,12,14,16,18,20,22,24,26,28,30,-1,-1,32,34,36,38,40,-1,42,44,46,48,50,52,54,56,-1,-1,-1,-1,-1,-1,-1,-1,-1,-1,-1,-1,-1,-1,-1,-1,-1,-1,-1,-1,-1,-1,-1,-1,-1,-1],"split_conditions":[-1.8703576E0,-1.7309262E0,5.2980113E-1,-3.326853E-1,1.3903786E0,4.661141E-1,1.4505294E-1,-1.0867127E0,4.8216607E-2,5.5254743E-2,6.1790913E-1,2.3026555E0,-4.3123338E-1,4.9248856E-1,3.694262E0,3.1004647E-2,-1.2655471E-1,-1.456778E0,2.5002448E-2,-2.4915406E-1,3.5566936E0,1.4370378E0,-1.343589E-1,-4.4335824E-1,1.1866672E0,-2.673345E-1,-9.5832413E-1,2.8319287E-1,4.3794863E-2,-1.5228494E0,2.2254097E0,1.0426519E-1,-1.8097527E-1,1.24529794E-1,-1.3100725E-1,8.598146E-2,-1.261792E-1,-1.6249536E-1,1.2439781E-1,1.1624694E-1,-2.472773E-1,-1.06972806E-1,-1.2493189E-1,-1.2715149E-1,1.822548E-1,3.7221454E-2,-8.980198E-2,-5.0621208E-2,-1.2664372E-1,5.7913102E-2,-6.419237E-2,-1.989231E-2,-1.317757E-1,5.0089277E-2,-1.15166925E-1,-1.3096623E-1,2.4804619E-1],"split_indices":[14,10,4,4,4,7,8,18,11,27,10,22,26,1,4,0,0,3,3,26,21,0,0,14,21,13,14,13,14,14,23,0,0,0,0,0,0,0,0,0,0,0,0,0,0,0,0,0,0,0,0,0,0,0,0,0,0],"split_type":[0,0,0,0,0,0,0,0,0,0,0,0,0,0,0,0,0,0,0,0,0,0,0,0,0,0,0,0,0,0,0,0,0,0,0,0,0,0,0,0,0,0,0,0,0,0,0,0,0,0,0,0,0,0,0,0,0],"sum_hessian":[6.3204105E4,2.7016842E4,3.618726E4,2.350672E4,3.51012E3,2.3889842E4,1.2297421E4,1.8173685E1,2.3488549E4,1.8339474E3,1.6761726E3,1.7080785E4,6.809055E3,8.620961E3,3.6764595E3,1.1084927E0,1.7065191E1,6.026856E1,2.342828E4,1.2711201E3,5.628273E2,1.6441316E3,3.2040966E1,1.6957432E4,1.2335395E2,2.473789E3,4.3352666E3,5.4391743E3,3.1817866E3,3.623467E3,5.2992428E1,4.4010643E1,1.6257914E1,2.3427096E4,1.1835229E0,9.3706104E2,3.3405908E2,4.857776E2,7.7049675E1,1.6357144E3,8.417261E0,4.122632E3,1.28348E4,7.192022E1,5.1433735E1,1.3951011E3,1.078688E3,6.6514624E2,3.67012E3,4.0729236E3,1.366251E3,1.5637294E3,1.6180574E3,1.18556694E2,3.5049104E3,9.766287E0,4.322614E1],"tree_param":{"num_deleted":"0","num_feature":"30","num_nodes":"57","size_leaf_vector":"1"}},{"base_weights":[7.941291E-4,1.1672541E0,-7.074913E-1,-3.9943373E-1,1.2075825E0,-4.2001072E-2,-8.217478E-1,1.0952858E0,-9.4221014E-1,1.2131249E0,-1.3204078E-1,3.385366E-1,-1.1128514E0,-1.695124E-1,-9.463195E-1,1.2577704E0,-1.3262962E-1,-1.3392649E0,-2.4595721E-1,1.2157314E0,-1.2535374E-1,5.347083E-1,-1.3503946E0,-1.2111137E0,9.318404E-2,3.554454E-1,-9.4328827E-1,-7.070197E-1,-1.055048E0,1.2722412E-1,-3.6162864E-2,-1.3806166E-1,-7.606014E-2,-1.4205603E-1,1.10038795E-1,1.2172276E-1,-1.7614773E-1,-8.464211E-2,7.504534E-2,-8.7132126E-2,-1.3909358E-1,-5.1805194E-2,-1.23168625E-1,-1.33143E-1,1.0570504E-1,-4.1467346E-2,7.696815E-2,8.018996E-2,-1.05383806E-1,-4.128974E-2,-1.1825706E-1,-1.0870216E-1,-1.9260263E-2],"categories":[],"categories_nodes":[],"categories_segments":[],"categories_sizes":[],"default_left":[0,0,0,0,0,0,0,0,0,0,0,0,0,0,0,0,0,0,0,0,0,0,0,0,0,0,0,0,0,0,0,0,0,0,0,0,0,0,0,0,0,0,0,0,0,0,0,0,0,0,0,0,0],"id":10,"left_children":[1,3,5,7,9,11,13,15,17,19,-1,21,23,25,27,29,-1,31,33,35,-1,37,39,41,43,45,47,49,51,-1,-1,-1,-1,-1,-1,-1,-1,-1,-1,-1,-1,-1,-1,-1,-1,-1,-1,-1,-1,-1,-1,-1,-1],"loss_changes":[4.9144387E4,1.420375E3,2.8141055E3,4.5918585E2,3.0857227E2,2.2107288E3,2.5663027E3,6.1042603E1,1.1434708E2,1.4208594E2,0E0,1.3269309E3,1.686781E2,2.0584104E3,6.893086E2,3.7859344E0,0E0,5.2657166E0,2.4173906E2,9.9427734E1,0E0,1.0694498E3,6.88385E0,1.81156E1,1.4982722E2,9.635421E2,3.960149E2,1.1588516E3,5.0259766E2,0E0,0E0,0E0,0E0,0E0,0E0,0E0,0E0,0E0,0E0,0E0,0E0,0E0,0E0,0E0,0E0,0E0,0E0,0E0,0E0,0E0,0E0,0E0,0E0],"parents":[2147483647,0,0,1,1,2,2,3,3,4,4,5,5,6,6,7,7,8,8,9,9,11,11,12,12,13,13,14,14,15,15,17,17,18,18,19,19,21,21,22,22,23,23,24,24,25,25,26,26,27,27,28,28],"right_children":[2,4,6,8,10,12,14,16,18,20,-1,22,24,26,28,30,-1,32,34,36,-1,38,40,42,44,46,48,50,52,-1,-1,-1,-1,-1,-1,-1,-1,-1,-1,-1,-1,-1,-1,-1,-1,-1,-1,-1,-1,-1,-1,-1,-1],"split_conditions":[-1.7309262E0,6.904516E-1,-1.220853E0,-2.473911E0,3.1460983E-1,1.4703386E-1,-3.6368778E-1,-4.9221528E-1,-4.9483573E-1,2.5002448E-2,-1.3204078E-1,7.330952E-1,1.6948048E0,-9.138115E-2,-4.292521E-1,1.0643523E0,-1.3262962E-1,1.2115437E0,7.3684883E-1,1.6893688E0,-1.2535374E-1,-3.2754534E-1,7.870185E-1,-3.5019085E-1,8.371414E-1,-7.272906E-2,-6.578505E0,1.4505294E-1,9.3401057E-1,1.2722412E-1,-3.6162864E-2,-1.3806166E-1,-7.606014E-2,-1.4205603E-1,1.10038795E-1,1.2172276E-1,-1.7614773E-1,-8.464211E-2,7.504534E-2,-8.7132126E-2,-1.3909358E-1,-5.1805194E-2,-1.23168625E-1,-1.33143E-1,1.0570504E-1,-4.1467346E-2,7.696815E-2,8.018996E-2,-1.05383806E-1,-4.128974E-2,-1.1825706E-1,-1.0870216E-1,-1.9260263E-2],"split_indices":[10,11,19,12,12,12,8,18,1,3,0,24,16,13,10,26,0,19,29,7,0,5,24,29,5,27,8,8,23,0,0,0,0,0,0,0,0,0,0,0,0,0,0,0,0,0,0,0,0,0,0,0,0],"split_type":[0,0,0,0,0,0,0,0,0,0,0,0,0,0,0,0,0,0,0,0,0,0,0,0,0,0,0,0,0,0,0,0,0,0,0,0,0,0,0,0,0,0,0,0,0,0,0,0,0,0,0,0,0],"sum_hessian":[5.9481402E4,2.247204E4,3.7009363E4,5.637168E2,2.1908322E4,5.4231924E3,3.1586172E4,1.4989954E2,4.138173E2,2.1860914E4,4.740742E1,4.0017966E3,1.4213958E3,5.0656587E3,2.6520514E4,1.4092432E2,8.975221E0,2.6294382E2,1.5087347E2,2.1838344E4,2.256986E1,3.585965E3,4.1583154E2,1.3143076E3,1.0708811E2,3.0184038E3,2.0472548E3,8.287687E3,1.8232826E4,1.3988866E2,1.0356495E0,2.4411345E2,1.883038E1,8.05465E1,7.0326965E1,2.1827965E4,1.0378345E1,4.840854E2,3.1018796E3,3.419875E1,3.8163278E2,3.864336E1,1.2756643E3,4.3061295E1,6.402682E1,1.0557064E3,1.9626973E3,1.21586235E2,1.9256686E3,5.1217915E3,3.1658955E3,1.758079E4,6.520379E2],"tree_param":{"num_deleted":"0","num_feature":"30","num_nodes":"53","size_leaf_vector":"1"}},{"base_weights":[2.316198E-3,1.0690717E0,-7.7639E-1,1.1887022E0,4.0679157E-1,-1.067572E0,-4.0866888E-1,-1.3926301E0,1.1898041E0,-1.1390909E-1,1.0441923E0,-1.17608E0,-8.771476E-1,1.8668728E-2,-8.080382E-1,-5.6856456E-3,-1.5528516E-1,-1.115334E-1,1.1905433E0,3.225786E-1,-1.1843504E0,-2.2875676E0,1.0982834E0,-1.0463085E0,-1.2048068E0,-5.8604195E-3,-1.0113329E0,6.410105E-1,-3.5619763E-1,-1.06053E0,-5.0106454E-1,1.1940557E-1,9.616914E-2,-1.330348E-1,7.4742384E-2,-1.2964717E-1,8.540841E-2,-3.3001387E-1,-8.444581E-2,-1.2057777E-1,1.1515023E-1,-3.5554387E-2,-1.1929405E-1,-7.669152E-2,-1.2104348E-1,1.2728155E-1,-9.1078445E-2,-1.0630027E-1,1.2207531E-1,-1.1757483E-1,8.1660144E-2,-1.0737426E-3,-1.09954335E-1,-4.387867E-2,-1.1470466E-1,7.3313736E-3,-1.0225477E-1],"categories":[],"categories_nodes":[],"categories_segments":[],"categories_sizes":[],"default_left":[0,0,0,0,0,0,0,0,0,0,0,0,0,0,0,0,0,0,0,0,0,0,0,0,0,0,0,0,0,0,0,0,0,0,0,0,0,0,0,0,0,0,0,0,0,0,0,0,0,0,0,0,0,0,0,0,0],"id":11,"left_children":[1,3,5,7,9,11,13,15,17,19,21,23,25,27,29,-1,-1,-1,31,33,35,37,39,41,43,45,47,49,51,53,55,-1,-1,-1,-1,-1,-1,-1,-1,-1,-1,-1,-1,-1,-1,-1,-1,-1,-1,-1,-1,-1,-1,-1,-1,-1,-1],"loss_changes":[4.6635156E4,1.8763555E3,3.4742695E3,5.8722656E1,1.203523E3,3.7316602E2,2.447796E3,1.842411E0,3.550586E1,9.332232E2,2.9633032E2,4.1734375E1,7.690039E2,1.6168805E3,5.741089E2,0E0,0E0,0E0,1.496875E1,9.974724E2,1.333274E2,3.574655E1,1.9818909E2,2.1207397E2,2.2327148E1,1.01804E3,6.586587E2,8.320746E2,1.1107163E3,2.1826855E2,1.00285583E3,0E0,0E0,0E0,0E0,0E0,0E0,0E0,0E0,0E0,0E0,0E0,0E0,0E0,0E0,0E0,0E0,0E0,0E0,0E0,0E0,0E0,0E0,0E0,0E0,0E0,0E0],"parents":[2147483647,0,0,1,1,2,2,3,3,4,4,5,5,6,6,7,7,8,8,9,9,10,10,11,11,12,12,13,13,14,14,18,18,19,19,20,20,21,21,22,22,23,23,24,24,25,25,26,26,27,27,28,28,29,29,30,30],"right_children":[2,4,6,8,10,12,14,16,18,20,22,24,26,28,30,-1,-1,-1,32,34,36,38,40,42,44,46,48,50,52,54,56,-1,-1,-1,-1,-1,-1,-1,-1,-1,-1,-1,-1,-1,-1,-1,-1,-1,-1,-1,-1,-1,-1,-1,-1,-1,-1],"split_conditions":[-1.7644464E0,-1.6707482E0,3.115783E-1,-2.8670302E-1,1.3165166E0,-1.7199104E-1,-4.3058515E-2,-8.692241E-1,-4.689852E-1,-2.4915406E-1,-1.3704923E0,-8.644972E-1,-9.7793704E-1,-3.2633513E-1,4.9707952E-1,-5.6856456E-3,-1.5528516E-1,-1.115334E-1,2.6088045E0,-1.9737338E-1,3.3663576E0,-5.616126E-1,6.189483E-1,-2.9185382E-1,-1.5928925E0,-4.088523E-1,2.119403E0,-1.0561545E0,4.2392018E-1,-3.6368778E-1,-6.587416E-2,1.1940557E-1,9.616914E-2,-1.330348E-1,7.4742384E-2,-1.2964717E-1,8.540841E-2,-3.3001387E-1,-8.444581E-2,-1.2057777E-1,1.1515023E-1,-3.5554387E-2,-1.1929405E-1,-7.669152E-2,-1.2104348E-1,1.2728155E-1,-9.1078445E-2,-1.0630027E-1,1.2207531E-1,-1.1757483E-1,8.1660144E-2,-1.0737426E-3,-1.09954335E-1,-4.387867E-2,-1.1470466E-1,7.3313736E-3,-1.0225477E-1],"split_indices":[14,12,4,11,4,4,12,6,4,26,22,26,19,14,25,0,0,0,17,9,21,26,18,8,14,14,22,11,1,8,21,0,0,0,0,0,0,0,0,0,0,0,0,0,0,0,0,0,0,0,0,0,0,0,0,0,0],"split_type":[0,0,0,0,0,0,0,0,0,0,0,0,0,0,0,0,0,0,0,0,0,0,0,0,0,0,0,0,0,0,0,0,0,0,0,0,0,0,0,0,0,0,0,0,0,0,0,0,0,0,0,0,0,0,0,0,0],"sum_hessian":[5.613833E4,2.3687826E4,3.2450502E4,2.0062969E4,3.6248572E3,1.8108938E4,1.4341564E4,8.021123E0,2.0054947E4,1.9955161E3,1.629341E3,1.1532368E4,6.576569E3,6.9286484E3,7.4129165E3,1.0041707E0,7.016952E0,5.9462056E0,2.0049E4,1.4180035E3,5.775126E2,2.537012E1,1.6039708E3,2.0969524E3,9.435416E3,8.7781494E2,5.698754E3,2.604322E3,4.324326E3,4.066054E3,3.3468625E3,1.9741795E4,3.072063E2,2.8950558E2,1.128498E3,5.477484E2,2.9764156E1,1.4152829E1,1.121729E1,3.5722942E1,1.5682479E3,3.6778564E2,1.7291666E3,1.2147257E2,9.313943E3,3.636142E2,5.1420074E2,5.570332E3,1.2842212E2,2.2902368E2,2.3752983E3,2.9529814E3,1.371345E3,4.9742587E2,3.568628E3,1.5930671E3,1.7537954E3],"tree_param":{"num_deleted":"0","num_feature":"30","num_nodes":"57","size_leaf_vector":"1"}},{"base_weights":[3.890337E-4,1.1196034E0,-6.359999E-1,-1.0880125E0,1.1521962E0,-8.168939E-1,1.9514802E-1,1.0290365E0,-1.2212658E-1,-1.3765109E0,1.1589267E0,-1.1040304E0,-5.867763E-1,-2.7509555E-1,7.130974E-1,-7.4028955E-3,1.1115178E-1,-1.4035864E-1,-5.865868E-1,5.185445E-1,1.1675241E0,-1.1321871E0,-4.8841807E-1,-1.1043522E0,-2.8528032E-1,1.2353736E-1,-9.0856713E-1,9.173086E-1,-3.0108124E-1,9.51939E-3,-9.1923356E-2,1.0262616E-1,-1.02763735E-1,1.1689583E-1,3.4109633E-2,-1.1800033E-1,-9.795452E-2,5.0500985E-2,-1.2516055E-1,1.5661556E-1,-1.1313971E-1,-5.7199965E-3,-1.1795777E-1,-5.227682E-2,7.090556E-2,-1.07938185E-1,1.3906018E-1,-2.6815146E-2,1.0792166E-1,7.6512635E-2,-8.8067904E-2],"categories":[],"categories_nodes":[],"categories_segments":[],"categories_sizes":[],"default_left":[0,0,0,0,0,0,0,0,0,0,0,0,0,0,0,0,0,0,0,0,0,0,0,0,0,0,0,0,0,0,0,0,0,0,0,0,0,0,0,0,0,0,0,0,0,0,0,0,0,0,0],"id":12,"left_children":[1,3,5,7,9,11,13,15,-1,17,19,21,23,25,27,-1,-1,-1,29,31,33,35,37,39,41,43,45,47,49,-1,-1,-1,-1,-1,-1,-1,-1,-1,-1,-1,-1,-1,-1,-1,-1,-1,-1,-1,-1,-1,-1],"loss_changes":[3.761442E4,1.3786523E3,5.061993E3,7.99718E1,3.2267383E2,1.8263008E3,1.4660792E3,1.6349506E0,0E0,2.575302E-1,1.0298633E2,2.1264453E2,2.395144E3,7.968847E2,5.934839E2,0E0,0E0,0E0,8.569573E-1,1.9814322E2,2.1607422E1,8.468359E1,4.0982825E2,4.098501E2,1.9787935E3,7.3355505E2,4.8015564E2,4.5794702E2,2.9780963E2,0E0,0E0,0E0,0E0,0E0,0E0,0E0,0E0,0E0,0E0,0E0,0E0,0E0,0E0,0E0,0E0,0E0,0E0,0E0,0E0,0E0,0E0],"parents":[2147483647,0,0,1,1,2,2,3,3,4,4,5,5,6,6,7,7,9,9,10,10,11,11,12,12,13,13,14,14,18,18,19,19,20,20,21,21,22,22,23,23,24,24,25,25,26,26,27,27,28,28],"right_children":[2,4,6,8,10,12,14,16,-1,18,20,22,24,26,28,-1,-1,-1,30,32,34,36,38,40,42,44,46,48,50,-1,-1,-1,-1,-1,-1,-1,-1,-1,-1,-1,-1,-1,-1,-1,-1,-1,-1,-1,-1,-1,-1],"split_conditions":[-1.7309262E0,-2.3361045E-1,1.162755E0,-4.906997E0,-5.3461075E-1,-4.3171026E-2,4.471999E-1,-1.1090448E0,-1.2212658E-1,-3.7420765E-1,6.904516E-1,1.3321859E0,-8.4796384E-2,7.7201664E-2,6.6656566E-1,-7.4028955E-3,1.1115178E-1,-1.4035864E-1,-4.1410403E0,4.2928112E-1,5.3999753E0,-3.326853E-1,-6.55098E-1,-7.4319024E0,1.6155522E-1,1.6443941E-1,3.4791355E0,-5.959587E-1,-5.3820854E-1,9.51939E-3,-9.1923356E-2,1.0262616E-1,-1.02763735E-1,1.1689583E-1,3.4109633E-2,-1.1800033E-1,-9.795452E-2,5.0500985E-2,-1.2516055E-1,1.5661556E-1,-1.1313971E-1,-5.7199965E-3,-1.1795777E-1,-5.227682E-2,7.090556E-2,-1.07938185E-1,1.3906018E-1,-2.6815146E-2,1.0792166E-1,7.6512635E-2,-8.8067904E-2],"split_indices":[10,4,4,17,11,4,11,5,0,1,11,29,18,8,10,0,0,0,8,16,29,4,26,23,8,28,5,26,18,0,0,0,0,0,0,0,0,0,0,0,0,0,0,0,0,0,0,0,0,0,0],"split_type":[0,0,0,0,0,0,0,0,0,0,0,0,0,0,0,0,0,0,0,0,0,0,0,0,0,0,0,0,0,0,0,0,0,0,0,0,0,0,0,0,0,0,0,0,0,0,0,0,0,0,0],"sum_hessian":[5.280828E4,1.9142209E4,3.3666074E4,2.780287E2,1.886418E4,2.764856E4,6.0175127E3,1.6065607E1,2.6196307E2,4.9536476E1,1.8814643E4,1.22986875E4,1.5349873E4,3.1542522E3,2.8632605E3,1.1248512E0,1.4940756E1,4.7143715E1,2.392762E0,2.5006093E2,1.8564582E4,1.1759973E4,5.387145E2,5.6492256E3,9.700647E3,1.9364696E3,1.2177825E3,2.383436E3,4.7982437E2,1.0187004E0,1.3740617E0,1.8849982E2,6.1561104E1,1.8532006E4,3.257612E1,8.9496875E3,2.810286E3,2.341994E2,3.0451508E2,5.6066776E1,5.5931587E3,7.7302095E3,1.9704379E3,9.205059E2,1.01596375E3,1.1340592E3,8.372335E1,2.863294E2,2.0971067E3,1.6886543E2,3.1095895E2],"tree_param":{"num_deleted":"0","num_feature":"30","num_nodes":"51","size_leaf_vector":"1"}},{"base_weights":[3.0418802E-3,1.0995172E0,-6.002999E-1,-1.04552E0,1.1324155E0,-9.8622E-1,-2.4524517E-1,9.7595626E-1,-1.19637065E-1,-1.3268363E0,1.1386353E0,-1.1016626E0,-6.701197E-1,1.09261245E-1,-6.223077E-1,-6.4122E-2,1.1013819E-1,-1.3595705E-1,-1.2949719E-2,1.1431129E0,-4.516058E-1,-1.1113065E0,9.9519394E-2,1.0354583E-1,-1.0061139E0,1.0357877E0,-3.4503084E-2,-8.085052E-1,1.21038005E-1,1.145823E-1,-8.176769E-3,-1.3658884E-1,1.01401664E-1,-1.15521684E-1,-9.625407E-2,-1.1745832E-1,1.6316235E-1,6.539803E-2,-1.1460894E-1,2.2574717E-2,-1.1033789E-1,1.1454751E-1,-1.8338887E-1,7.345823E-2,-2.6430769E-2,-6.488669E-2,-1.1535632E-1,-1.3185863E-1,5.5059638E-2],"categories":[],"categories_nodes":[],"categories_segments":[],"categories_sizes":[],"default_left":[0,0,0,0,0,0,0,0,0,0,0,0,0,0,0,0,0,0,0,0,0,0,0,0,0,0,0,0,0,0,0,0,0,0,0,0,0,0,0,0,0,0,0,0,0,0,0,0,0],"id":13,"left_children":[1,3,5,7,9,11,13,15,-1,17,19,21,23,25,27,-1,-1,-1,-1,29,31,33,35,37,39,41,43,45,47,-1,-1,-1,-1,-1,-1,-1,-1,-1,-1,-1,-1,-1,-1,-1,-1,-1,-1,-1,-1],"loss_changes":[3.285596E4,1.2451855E3,4.3895234E3,8.252634E1,2.6708594E2,5.5943555E2,2.2306323E3,4.5759125E0,0E0,1.5587692E0,1.2383984E2,1.3034766E2,1.0682443E3,1.145779E3,1.1193264E3,0E0,0E0,0E0,0E0,5.7427734E1,6.750909E1,7.174512E1,1.7850563E2,8.5717676E2,3.4352173E2,3.657893E2,1.3164008E3,3.554673E2,1.00294525E3,0E0,0E0,0E0,0E0,0E0,0E0,0E0,0E0,0E0,0E0,0E0,0E0,0E0,0E0,0E0,0E0,0E0,0E0,0E0,0E0],"parents":[2147483647,0,0,1,1,2,2,3,3,4,4,5,5,6,6,7,7,9,9,10,10,11,11,12,12,13,13,14,14,19,19,20,20,21,21,22,22,23,23,24,24,25,25,26,26,27,27,28,28],"right_children":[2,4,6,8,10,12,14,16,-1,18,20,22,24,26,28,-1,-1,-1,-1,30,32,34,36,38,40,42,44,46,48,-1,-1,-1,-1,-1,-1,-1,-1,-1,-1,-1,-1,-1,-1,-1,-1,-1,-1,-1,-1],"split_conditions":[-1.7309262E0,-2.1332732E-1,2.5306308E-1,-4.906997E0,-5.3461075E-1,-3.1470146E-2,-1.6304446E-2,-1.1960282E0,-1.19637065E-1,-5.553112E-1,3.1460983E-1,2.3026555E0,-7.6631E-1,-9.429702E-1,1.0594152E0,-6.4122E-2,1.1013819E-1,-1.3595705E-1,-1.2949719E-2,5.3999753E0,8.771871E-1,-8.708296E-3,1.1866672E0,9.541968E-2,-1.3660785E0,1.1073674E0,-1.6831284E0,1.0725169E-1,5.7104964E-2,1.145823E-1,-8.176769E-3,-1.3658884E-1,1.01401664E-1,-1.15521684E-1,-9.625407E-2,-1.1745832E-1,1.6316235E-1,6.539803E-2,-1.1460894E-1,2.2574717E-2,-1.1033789E-1,1.1454751E-1,-1.8338887E-1,7.345823E-2,-2.6430769E-2,-6.488669E-2,-1.1535632E-1,-1.3185863E-1,5.5059638E-2],"split_indices":[10,4,4,17,11,29,12,5,0,11,12,22,10,20,17,0,0,0,0,29,19,4,21,8,20,25,19,23,18,0,0,0,0,0,0,0,0,0,0,0,0,0,0,0,0,0,0,0,0],"split_type":[0,0,0,0,0,0,0,0,0,0,0,0,0,0,0,0,0,0,0,0,0,0,0,0,0,0,0,0,0,0,0,0,0,0,0,0,0,0,0,0,0,0,0,0,0,0,0,0,0],"sum_hessian":[4.9663176E4,1.7627408E4,3.2035766E4,2.6580157E2,1.7361607E4,1.5349804E4,1.6685963E4,1.8077963E1,2.4772362E2,4.3262836E1,1.7318344E4,1.1241736E4,4.1080674E3,8.600582E3,8.08538E3,1.00519E0,1.7072773E1,4.1979656E1,1.2831801E0,1.7269998E4,4.8346573E1,1.1152273E4,8.946307E1,1.2440923E3,2.8639749E3,1.1544198E3,7.4461626E3,6.4657217E3,1.6196583E3,1.7231936E4,3.8060898E1,2.9815289E1,1.8531282E1,8.605485E3,2.5467878E3,4.897154E1,4.0491535E1,8.6399835E2,3.8009396E2,2.0948827E2,2.6544868E3,1.1124977E3,4.192209E1,1.7125585E3,5.733604E3,4.422547E3,2.0431749E3,3.7173935E2,1.247919E3],"tree_param":{"num_deleted":"0","num_feature":"30","num_nodes":"49","size_leaf_vector":"1"}},{"base_weights":[8.7243796E-4,9.871207E-1,-6.81063E-1,1.130304E0,3.464369E-1,-5.3400064E-1,-1.073901E0,1.1322352E0,-1.3175346E-1,-5.571743E-1,6.5932935E-1,-3.0620128E-1,-1.0470136E0,5.1940876E-1,-1.0956265E0,-1.2197012E-1,1.1327561E0,8.8590586E-1,-8.4288585E-1,7.8622353E-1,-1.5035762E0,-7.0638E-1,1.0353705E-2,-1.1517844E0,-5.321574E-1,2.067814E0,-1.2631398E-1,-5.310672E-1,-1.1332699E0,1.1368903E-1,8.540386E-2,1.1387259E-1,-1.520279E-1,7.486413E-2,-1.1623247E-1,-1.3231662E-1,8.648576E-2,-1.4420252E-1,-1.8931758E-1,-8.001407E-2,1.0155183E-1,-8.993333E-2,3.0458082E-2,-6.902101E-2,-1.1699251E-1,9.988732E-3,-1.17488794E-1,-1.0940232E-1,2.3808883E-1,1.2959908E-1,-1.06112815E-1,-1.1618942E-1,-8.5261695E-2],"categories":[],"categories_nodes":[],"categories_segments":[],"categories_sizes":[],"default_left":[0,0,0,0,0,0,0,0,0,0,0,0,0,0,0,0,0,0,0,0,0,0,0,0,0,0,0,0,0,0,0,0,0,0,0,0,0,0,0,0,0,0,0,0,0,0,0,0,0,0,0,0,0],"id":14,"left_children":[1,3,5,7,9,11,13,15,-1,17,19,21,23,25,27,-1,29,31,33,35,37,39,41,43,45,47,-1,49,51,-1,-1,-1,-1,-1,-1,-1,-1,-1,-1,-1,-1,-1,-1,-1,-1,-1,-1,-1,-1,-1,-1,-1,-1],"loss_changes":[3.1506018E4,1.7563184E3,1.5994316E3,7.547656E1,9.89761E2,2.3548916E3,2.6166797E2,2.0541016E1,0E0,3.7207138E2,7.1471924E2,1.7681464E3,3.3365186E2,2.8454266E2,1.575498E2,0E0,1.7048828E1,9.2572075E1,3.8332574E2,4.0858154E2,7.3309326E-1,9.960664E2,2.0863926E3,4.229883E1,4.2652094E2,5.7089874E1,0E0,4.5370242E2,5.504785E1,0E0,0E0,0E0,0E0,0E0,0E0,0E0,0E0,0E0,0E0,0E0,0E0,0E0,0E0,0E0,0E0,0E0,0E0,0E0,0E0,0E0,0E0,0E0,0E0],"parents":[2147483647,0,0,1,1,2,2,3,3,4,4,5,5,6,6,7,7,9,9,10,10,11,11,12,12,13,13,14,14,16,16,17,17,18,18,19,19,20,20,21,21,22,22,23,23,24,24,25,25,27,27,28,28],"right_children":[2,4,6,8,10,12,14,16,-1,18,20,22,24,26,28,-1,30,32,34,36,38,40,42,44,46,48,-1,50,52,-1,-1,-1,-1,-1,-1,-1,-1,-1,-1,-1,-1,-1,-1,-1,-1,-1,-1,-1,-1,-1,-1,-1,-1],"split_conditions":[-1.67157E0,-1.7860619E0,1.6828856E-1,5.4506254E-1,-9.27611E-2,6.088396E-1,-2.3892183E0,-4.0394217E-1,-1.3175346E-1,-2.0731113E0,1.080809E0,-6.726372E-2,9.8699075E-1,-2.3640478E0,-1.5521014E0,-1.2197012E-1,2.6088045E0,-4.1218686E0,-9.699803E-1,4.3820746E-2,-1.257383E-1,2.3026555E0,-4.099219E-1,-1.2219664E0,1.8858336E-2,-2.9906666E0,-1.2631398E-1,-2.0255797E0,1.1828773E0,1.1368903E-1,8.540386E-2,1.1387259E-1,-1.520279E-1,7.486413E-2,-1.1623247E-1,-1.3231662E-1,8.648576E-2,-1.4420252E-1,-1.8931758E-1,-8.001407E-2,1.0155183E-1,-8.993333E-2,3.0458082E-2,-6.902101E-2,-1.1699251E-1,9.988732E-3,-1.17488794E-1,-1.0940232E-1,2.3808883E-1,1.2959908E-1,-1.06112815E-1,-1.1618942E-1,-8.5261695E-2],"split_indices":[14,12,8,10,1,1,6,11,0,10,26,17,25,25,12,0,17,14,7,18,29,22,18,14,14,1,0,19,12,0,0,0,0,0,0,0,0,0,0,0,0,0,0,0,0,0,0,0,0,0,0,0,0],"split_type":[0,0,0,0,0,0,0,0,0,0,0,0,0,0,0,0,0,0,0,0,0,0,0,0,0,0,0,0,0,0,0,0,0,0,0,0,0,0,0,0,0,0,0,0,0,0,0,0,0,0,0,0,0],"sum_hessian":[4.6843082E4,1.9148764E4,2.769432E4,1.5650372E4,3.4983909E3,2.0152438E4,7.5418823E3,1.5638572E4,1.1799758E1,8.996075E2,2.5987834E3,1.3956682E4,6.1957563E3,1.0114482E2,7.440738E3,2.9448144E0,1.5635628E4,1.483279E2,7.512796E2,2.4553674E3,1.4341597E2,6.1636104E3,7.793072E3,5.147107E3,1.0486492E3,5.404166E1,4.7103157E1,4.6606216E2,6.9746753E3,1.5404057E4,2.3157108E2,1.3470145E2,1.3626452E1,1.2536E2,6.259196E2,8.767313E1,2.3676943E3,1.2790948E2,1.5506497E1,5.845829E3,3.1778125E2,1.9040626E3,5.8890093E3,1.9611679E2,4.95099E3,5.2914557E2,5.1950366E2,4.644172E0,4.9397488E1,1.0448153E2,3.6158063E2,6.326305E3,6.483704E2],"tree_param":{"num_deleted":"0","num_feature":"30","num_nodes":"53","size_leaf_vector":"1"}},{"base_weights":[1.3303965E-3,9.678035E-1,-6.48405E-1,1.114922E0,3.3654958E-1,-9.5872E-1,-3.0312714E-1,1.1160127E0,-1.3889462E-1,-7.4624635E-2,9.564211E-1,-9.9521595E-1,-3.2738995E-2,-1.0315582E-1,-9.4791555E-1,-1.2115798E-1,1.116707E0,-5.983079E-1,6.573979E-1,-1.2952327E0,1.0354298E0,-1.1310962E0,-7.652262E-1,8.528049E-1,-1.2079846E0,2.2978097E-1,-6.16387E-1,-9.940626E-1,1.334562E0,1.1212947E-1,8.173519E-2,-9.986639E-3,-1.2896805E-1,9.284299E-2,-1.357597E-1,1.13496326E-1,-1.8357372E-1,-1.2028537E-1,1.0813742E-1,-1.1432254E-1,-9.728416E-2,1.2650861E-2,-9.492278E-2,-1.0443886E-1,1.5170166E-1,-1.22958064E-1,-1.9977046E-2,-3.517981E-2,5.7509918E-2,2.5465323E-2,-9.390261E-2,-8.529014E-3,-1.09211855E-1,2.0481792E-1,-1.244406E-1],"categories":[],"categories_nodes":[],"categories_segments":[],"categories_sizes":[],"default_left":[0,0,0,0,0,0,0,0,0,0,0,0,0,0,0,0,0,0,0,0,0,0,0,0,0,0,0,0,0,0,0,0,0,0,0,0,0,0,0,0,0,0,0,0,0,0,0,0,0,0,0,0,0,0,0],"id":15,"left_children":[1,3,5,7,9,11,13,15,-1,17,19,21,23,25,27,-1,29,31,33,35,37,39,41,43,45,47,49,51,53,-1,-1,-1,-1,-1,-1,-1,-1,-1,-1,-1,-1,-1,-1,-1,-1,-1,-1,-1,-1,-1,-1,-1,-1,-1,-1],"loss_changes":[2.7654953E4,1.643834E3,2.8214072E3,4.0759766E1,8.5332666E2,4.686787E2,1.6073743E3,2.4546875E1,0E0,7.723066E2,2.3886084E2,4.161328E2,5.494397E2,1.6263213E3,3.121582E2,0E0,1.8791016E1,4.0457E2,4.6013815E2,6.2118095E1,1.3400342E2,1.4983398E1,8.13751E2,3.810091E2,4.6936035E0,1.159602E3,1.0526505E3,2.5771533E2,1.1096377E2,0E0,0E0,0E0,0E0,0E0,0E0,0E0,0E0,0E0,0E0,0E0,0E0,0E0,0E0,0E0,0E0,0E0,0E0,0E0,0E0,0E0,0E0,0E0,0E0,0E0,0E0],"parents":[2147483647,0,0,1,1,2,2,3,3,4,4,5,5,6,6,7,7,9,9,10,10,11,11,12,12,13,13,14,14,16,16,17,17,18,18,19,19,20,20,21,21,22,22,23,23,24,24,25,25,26,26,27,27,28,28],"right_children":[2,4,6,8,10,12,14,16,-1,18,20,22,24,26,28,-1,30,32,34,36,38,40,42,44,46,48,50,52,54,-1,-1,-1,-1,-1,-1,-1,-1,-1,-1,-1,-1,-1,-1,-1,-1,-1,-1,-1,-1,-1,-1,-1,-1,-1,-1],"split_conditions":[-1.67157E0,-1.7860619E0,3.115783E-1,1.6893688E0,1.3903786E0,1.5233727E0,1.6155522E-1,-3.4613E-1,-1.3889462E-1,-7.568225E-2,6.019455E-1,-1.5190136E-1,-4.9265522E-1,1.5585114E-1,3.694262E0,-1.2115798E-1,2.6088045E0,1.4475872E-1,4.471999E-1,-2.2983584E0,-1.274927E0,1.3420566E0,-8.272273E-1,-7.994196E-2,1.7808431E0,2.968588E-3,-4.5822993E-1,-1.5521014E0,-2.5076168E0,1.1212947E-1,8.173519E-2,-9.986639E-3,-1.2896805E-1,9.284299E-2,-1.357597E-1,1.13496326E-1,-1.8357372E-1,-1.2028537E-1,1.0813742E-1,-1.1432254E-1,-9.728416E-2,1.2650861E-2,-9.492278E-2,-1.0443886E-1,1.5170166E-1,-1.22958064E-1,-1.9977046E-2,-3.517981E-2,5.7509918E-2,2.5465323E-2,-9.390261E-2,-8.529014E-3,-1.09211855E-1,2.0481792E-1,-1.244406E-1],"split_indices":[14,12,4,7,4,7,8,11,0,29,18,4,26,14,4,0,17,15,11,7,22,11,19,9,15,5,8,12,25,0,0,0,0,0,0,0,0,0,0,0,0,0,0,0,0,0,0,0,0,0,0,0,0,0,0],"split_type":[0,0,0,0,0,0,0,0,0,0,0,0,0,0,0,0,0,0,0,0,0,0,0,0,0,0,0,0,0,0,0,0,0,0,0,0,0,0,0,0,0,0,0,0,0,0,0,0,0,0,0,0,0,0,0],"sum_hessian":[4.403793E4,1.7703586E4,2.6334346E4,1.4356848E4,3.346738E3,1.3868445E4,1.24659E4,1.435115E4,5.6968627E0,2.0126099E3,1.3341282E3,1.3342499E4,5.2594617E2,9.51586E3,2.9500393E3,3.7595448E0,1.4347391E4,1.1733716E3,8.392383E2,4.4704704E1,1.2894235E3,8.384772E3,4.9577266E3,3.0009778E2,2.2584839E2,5.7720454E3,3.7438154E3,2.8921309E3,5.790853E1,1.4128122E4,2.1926892E2,6.824833E2,4.9088834E2,7.4021326E2,9.902501E1,7.9336987E0,3.6771004E1,2.5428652E1,1.2639949E3,7.782099E3,6.0267365E2,8.4805853E2,4.1096685E3,7.767153E1,2.2242625E2,2.208972E2,4.95119E0,2.1503848E3,3.6216606E3,1.01197107E3,2.7318442E3,2.8184937E2,2.6102815E3,4.5518955E1,1.2389576E1],"tree_param":{"num_deleted":"0","num_feature":"30","num_nodes":"55","size_leaf_vector":"1"}},{"base_weights":[6.9572916E-4,9.318504E-1,-6.22894E-1,1.0989968E0,2.883839E-1,-8.854877E-1,-2.2146419E-1,1.1005257E0,-1.3793074E-1,-4.099142E-1,6.2835824E-1,-1.0424644E0,-5.748396E-1,7.5251614E-3,-8.765729E-1,1.1073866E0,7.0983535E-1,3.2105702E-1,-8.680321E-1,7.4324715E-1,-1.3262733E0,-4.6380502E-1,-1.0749E0,-9.005169E-1,7.175491E-2,1.5460822E-1,-1.262366E0,-9.2646873E-1,1.2588207E0,-1.0079111E-1,1.1082484E-1,9.056264E-2,-3.1990764E-1,-1.3290264E-1,8.032478E-2,-1.17646806E-1,-2.1001726E-2,9.004726E-2,-7.095385E-3,9.036922E-2,-1.5081798E-1,-1.0116432E-1,6.798557E-2,-8.212908E-2,-1.10661365E-1,-1.2844205E-2,-1.0951847E-1,7.3781736E-2,-6.796957E-2,4.90784E-2,-4.124161E-2,-1.2444768E-1,-2.1942334E-1,-1.09710125E-2,-1.0292473E-1,1.8404171E-1,-1.2093722E-1],"categories":[],"categories_nodes":[],"categories_segments":[],"categories_sizes":[],"default_left":[0,0,0,0,0,0,0,0,0,0,0,0,0,0,0,0,0,0,0,0,0,0,0,0,0,0,0,0,0,0,0,0,0,0,0,0,0,0,0,0,0,0,0,0,0,0,0,0,0,0,0,0,0,0,0,0,0],"id":16,"left_children":[1,3,5,7,9,11,13,15,-1,17,19,21,23,25,27,29,31,33,35,37,39,41,43,45,47,49,51,53,55,-1,-1,-1,-1,-1,-1,-1,-1,-1,-1,-1,-1,-1,-1,-1,-1,-1,-1,-1,-1,-1,-1,-1,-1,-1,-1,-1,-1],"loss_changes":[2.3996133E4,1.7824043E3,2.6088223E3,5.1375E1,8.119716E2,7.290332E2,1.4684996E3,3.4460938E1,0E0,3.753926E2,5.1747736E2,1.8603711E2,1.058221E3,1.3552123E3,2.713142E2,2.4671875E1,1.7870612E2,3.450269E2,1.3956415E2,2.7822583E2,5.3302032E1,3.3229614E2,7.477637E1,5.0213013E2,8.4341766E2,1.2397058E3,9.824463E0,2.0791699E2,8.593712E1,0E0,0E0,0E0,0E0,0E0,0E0,0E0,0E0,0E0,0E0,0E0,0E0,0E0,0E0,0E0,0E0,0E0,0E0,0E0,0E0,0E0,0E0,0E0,0E0,0E0,0E0,0E0,0E0],"parents":[2147483647,0,0,1,1,2,2,3,3,4,4,5,5,6,6,7,7,9,9,10,10,11,11,12,12,13,13,14,14,15,15,16,16,17,17,18,18,19,19,20,20,21,21,22,22,23,23,24,24,25,25,26,26,27,27,28,28],"right_children":[2,4,6,8,10,12,14,16,-1,18,20,22,24,26,28,30,32,34,36,38,40,42,44,46,48,50,52,54,56,-1,-1,-1,-1,-1,-1,-1,-1,-1,-1,-1,-1,-1,-1,-1,-1,-1,-1,-1,-1,-1,-1,-1,-1,-1,-1,-1,-1],"split_conditions":[-1.5928925E0,-1.6707482E0,5.1406306E-1,1.6893688E0,9.4313465E-2,4.175438E-1,1.4505294E-1,2.6088045E0,-1.3793074E-1,-6.553592E-1,8.951326E-1,-8.4643584E-1,2.4766462E-2,6.6860425E-1,3.694262E0,-3.681673E-1,1.4877813E0,2.9936427E-1,-2.1102221E-1,9.8075217E-1,-4.9510118E-1,-5.1680887E-1,-8.356295E-1,-2.057224E-1,-4.5212302E-1,1.5585114E-1,2.0750299E0,-1.4528352E0,-2.5076168E0,-1.0079111E-1,1.1082484E-1,9.056264E-2,-3.1990764E-1,-1.3290264E-1,8.032478E-2,-1.17646806E-1,-2.1001726E-2,9.004726E-2,-7.095385E-3,9.036922E-2,-1.5081798E-1,-1.0116432E-1,6.798557E-2,-8.212908E-2,-1.10661365E-1,-1.2844205E-2,-1.0951847E-1,7.3781736E-2,-6.796957E-2,4.90784E-2,-4.124161E-2,-1.2444768E-1,-2.1942334E-1,-1.09710125E-2,-1.0292473E-1,1.8404171E-1,-1.2093722E-1],"split_indices":[14,12,4,7,1,7,8,17,0,13,15,20,4,1,4,4,13,4,1,1,2,1,14,5,13,14,17,12,25,0,0,0,0,0,0,0,0,0,0,0,0,0,0,0,0,0,0,0,0,0,0,0,0,0,0,0,0],"split_type":[0,0,0,0,0,0,0,0,0,0,0,0,0,0,0,0,0,0,0,0,0,0,0,0,0,0,0,0,0,0,0,0,0,0,0,0,0,0,0,0,0,0,0,0,0,0,0,0,0,0,0,0,0,0,0,0,0],"sum_hessian":[4.1323727E4,1.6574264E4,2.474946E4,1.3156129E4,3.4181335E3,1.4961351E4,9.788111E3,1.3148573E4,7.5562615E0,1.1191742E3,2.2989595E3,9.937417E3,5.023933E3,7.2536353E3,2.5344766E3,1.2919856E4,2.2871652E2,4.312972E2,6.87877E2,2.1719185E3,1.2704079E2,5.282684E2,9.409148E3,3.3408286E3,1.6831046E3,6.5014893E3,7.5214606E2,2.4771611E3,5.731546E1,4.785846E0,1.291507E4,2.185386E2,1.0177929E1,9.713605E1,3.3416116E2,4.6780954E2,2.200675E2,1.8203046E3,3.5161398E2,9.2823105E0,1.1775848E2,3.5725226E2,1.7101613E2,1.0488162E3,8.360332E3,6.730589E2,2.6677695E3,8.922554E2,7.9084924E2,4.0816853E3,2.4198037E3,7.402705E2,1.1875587E1,2.7710837E2,2.2000527E3,4.6591217E1,1.0724246E1],"tree_param":{"num_deleted":"0","num_feature":"30","num_nodes":"57","size_leaf_vector":"1"}},{"base_weights":[8.272299E-4,9.24547E-1,-5.865313E-1,1.0884811E0,2.8973338E-1,-3.4796026E-1,-8.3711576E-1,1.0904202E0,-1.2161163E-1,4.8762873E-1,-6.810622E-1,3.2519716E-1,-5.474722E-1,-9.999784E-1,-5.3767174E-1,1.0955515E0,7.7233666E-1,6.438227E-1,-1.160003E0,-1.1046329E0,8.005652E-1,1.0117989E0,-1.3877426E-1,-6.369868E-1,7.100296E-1,8.443613E-3,-1.0582919E0,-2.1627581E-1,-9.462779E-1,-1.0872507E-1,1.0960163E-1,9.5135786E-2,-3.273501E-1,-1.0360479E-1,7.685338E-2,1.01610005E-1,-1.3435261E-1,-1.2900291E-1,7.6249726E-3,1.1772722E-1,-1.3969582E-1,1.2296148E-1,-9.5384724E-2,-6.1822392E-2,5.968395E-2,-4.830138E-2,-1.1801324E-1,1.3143383E-1,-1.2227227E-1,1.3350561E-1,-9.085855E-2,-1.0688495E-1,5.7198703E-2,7.869936E-3,-1.08608775E-1,9.967708E-2,-1.04095474E-1],"categories":[],"categories_nodes":[],"categories_segments":[],"categories_sizes":[],"default_left":[0,0,0,0,0,0,0,0,0,0,0,0,0,0,0,0,0,0,0,0,0,0,0,0,0,0,0,0,0,0,0,0,0,0,0,0,0,0,0,0,0,0,0,0,0,0,0,0,0,0,0,0,0,0,0,0,0],"id":17,"left_children":[1,3,5,7,9,11,13,15,-1,17,19,21,23,25,27,29,31,33,35,37,39,41,43,45,47,49,51,53,55,-1,-1,-1,-1,-1,-1,-1,-1,-1,-1,-1,-1,-1,-1,-1,-1,-1,-1,-1,-1,-1,-1,-1,-1,-1,-1,-1,-1],"loss_changes":[2.1070809E4,1.5706592E3,1.4189707E3,5.4944336E1,5.9581287E2,1.6337747E3,5.64103E2,1.871875E1,0E0,6.635053E2,3.305321E2,8.8621954E2,1.0566519E3,4.409336E2,5.3571765E2,1.3158203E1,1.4341055E2,4.9373828E2,9.056531E1,8.96221E1,9.879823E1,4.8145312E2,5.860888E2,7.3202856E2,7.304414E2,5.0106683E2,1.2261182E2,5.864863E2,3.31505E2,0E0,0E0,0E0,0E0,0E0,0E0,0E0,0E0,0E0,0E0,0E0,0E0,0E0,0E0,0E0,0E0,0E0,0E0,0E0,0E0,0E0,0E0,0E0,0E0,0E0,0E0,0E0,0E0],"parents":[2147483647,0,0,1,1,2,2,3,3,4,4,5,5,6,6,7,7,9,9,10,10,11,11,12,12,13,13,14,14,15,15,16,16,17,17,18,18,19,19,20,20,21,21,22,22,23,23,24,24,25,25,26,26,27,27,28,28],"right_children":[2,4,6,8,10,12,14,16,-1,18,20,22,24,26,28,30,32,34,36,38,40,42,44,46,48,50,52,54,56,-1,-1,-1,-1,-1,-1,-1,-1,-1,-1,-1,-1,-1,-1,-1,-1,-1,-1,-1,-1,-1,-1,-1,-1,-1,-1,-1,-1],"split_conditions":[-1.67157E0,-1.7860619E0,2.1300223E-2,5.4506254E-1,5.6602937E-1,-1.0565491E0,5.2992445E-1,2.6088045E0,-1.2161163E-1,1.0306621E0,7.733114E-1,-4.4335824E-1,1.6893688E0,-1.3409913E0,1.0681383E-1,-4.0394217E-1,1.4877813E0,4.3820746E-2,-4.4305596E0,-1.7644464E0,-1.0217317E0,8.1410027E-1,2.4828762E-1,3.985048E-1,-5.0142235E-1,-7.9087454E-1,2.8034484E0,7.2060126E-1,-3.5034856E-1,-1.0872507E-1,1.0960163E-1,9.5135786E-2,-3.273501E-1,-1.0360479E-1,7.685338E-2,1.01610005E-1,-1.3435261E-1,-1.2900291E-1,7.6249726E-3,1.1772722E-1,-1.3969582E-1,1.2296148E-1,-9.5384724E-2,-6.1822392E-2,5.968395E-2,-4.830138E-2,-1.1801324E-1,1.3143383E-1,-1.2227227E-1,1.3350561E-1,-9.085855E-2,-1.0688495E-1,5.7198703E-2,7.869936E-3,-1.08608775E-1,9.967708E-2,-1.04095474E-1],"split_indices":[14,12,12,10,15,19,25,17,0,26,29,14,7,13,14,11,13,18,14,14,10,3,11,13,26,16,26,3,29,0,0,0,0,0,0,0,0,0,0,0,0,0,0,0,0,0,0,0,0,0,0,0,0,0,0,0,0],"split_type":[0,0,0,0,0,0,0,0,0,0,0,0,0,0,0,0,0,0,0,0,0,0,0,0,0,0,0,0,0,0,0,0,0,0,0,0,0,0,0,0,0,0,0,0,0,0,0,0,0,0,0,0,0,0,0,0,0],"sum_hessian":[3.8834285E4,1.5094725E4,2.373956E4,1.1996134E4,3.0985908E3,1.2162521E4,1.157704E4,1.1986574E4,9.559468E0,2.5743174E3,5.242733E2,2.7804827E3,9.382038E3,7.497134E3,4.079906E3,1.1793873E4,1.9270168E2,2.3519626E3,2.2235474E2,4.0791284E2,1.1636048E2,1.1207603E3,1.6597225E3,8.759025E3,6.230134E2,4.098808E2,7.0872534E3,2.2845137E3,1.7953925E3,2.0126011E0,1.179186E4,1.8526872E2,7.4329576E0,1.6203444E2,2.1899282E3,1.6941109E1,2.0541364E2,3.524815E2,5.543135E1,9.972889E1,1.6631594E1,1.0092936E3,1.1146668E2,1.0049122E3,6.548103E2,6.825886E3,1.933139E3,4.748601E2,1.4815329E2,1.6734161E2,2.4253917E2,7.0419946E3,4.525878E1,1.7066538E3,5.7785986E2,8.297485E1,1.7124176E3],"tree_param":{"num_deleted":"0","num_feature":"30","num_nodes":"57","size_leaf_vector":"1"}},{"base_weights":[1.5877188E-3,9.1999507E-1,-5.465524E-1,1.0784706E0,2.8560978E-1,-9.152378E-1,-2.4073373E-1,1.0794842E0,-1.2403547E-1,-9.392971E-2,8.6829203E-1,-9.5708203E-1,8.2223E-4,1.4048302E-1,-5.418456E-1,-1.2351581E-1,1.08028E0,-1.1225945E0,1.9932194E-1,-1.8213103E0,9.5461553E-1,-1.0944556E0,-6.978547E-1,-8.4018624E-1,1.1690296E0,3.260796E-1,-8.2727236E-1,-4.0407944E-1,-1.0262443E0,1.0851573E-1,7.827065E-2,-1.3309342E-1,8.412716E-2,6.407801E-2,-9.3170606E-2,-2.4833106E-1,2.1856463E-2,-1.6255145E-1,9.8431855E-2,-6.683661E-2,-1.1004936E-1,-6.826656E-4,-9.508073E-2,-1.0748066E-1,1.3766268E-2,1.5862696E-1,-1.1887763E-1,6.818571E-2,-3.576598E-2,1.3288832E-1,-1.1328887E-1,-1.470045E-2,-8.0689915E-2,-1.0881781E-1,1.1535803E-1],"categories":[],"categories_nodes":[],"categories_segments":[],"categories_sizes":[],"default_left":[0,0,0,0,0,0,0,0,0,0,0,0,0,0,0,0,0,0,0,0,0,0,0,0,0,0,0,0,0,0,0,0,0,0,0,0,0,0,0,0,0,0,0,0,0,0,0,0,0,0,0,0,0,0,0],"id":18,"left_children":[1,3,5,7,9,11,13,15,-1,17,19,21,23,25,27,-1,29,31,33,35,37,39,41,43,45,47,49,51,53,-1,-1,-1,-1,-1,-1,-1,-1,-1,-1,-1,-1,-1,-1,-1,-1,-1,-1,-1,-1,-1,-1,-1,-1,-1,-1],"loss_changes":[1.8453818E4,1.377124E3,2.588102E3,2.7103516E1,6.060141E2,3.9895508E2,1.4405873E3,2.1518555E1,0E0,5.009987E2,2.5268079E2,3.5368066E2,4.4864453E2,9.9509985E2,4.6748608E2,0E0,1.5049805E1,1.5185892E2,6.4602295E2,4.639496E1,8.1906555E1,1.599707E1,6.031039E2,6.1061493E1,1.8992523E2,1.130959E3,5.8901654E2,5.6534796E2,2.1076868E2,0E0,0E0,0E0,0E0,0E0,0E0,0E0,0E0,0E0,0E0,0E0,0E0,0E0,0E0,0E0,0E0,0E0,0E0,0E0,0E0,0E0,0E0,0E0,0E0,0E0,0E0],"parents":[2147483647,0,0,1,1,2,2,3,3,4,4,5,5,6,6,7,7,9,9,10,10,11,11,12,12,13,13,14,14,16,16,17,17,18,18,19,19,20,20,21,21,22,22,23,23,24,24,25,25,26,26,27,27,28,28],"right_children":[2,4,6,8,10,12,14,16,-1,18,20,22,24,26,28,-1,30,32,34,36,38,40,42,44,46,48,50,52,54,-1,-1,-1,-1,-1,-1,-1,-1,-1,-1,-1,-1,-1,-1,-1,-1,-1,-1,-1,-1,-1,-1,-1,-1,-1,-1],"split_conditions":[-1.7644464E0,-1.7860619E0,2.2952291E-1,1.6893688E0,1.3903786E0,1.5233727E0,-1.911865E-1,-3.2675883E-1,-1.2403547E-1,-1.6220483E-1,-1.274927E0,-1.9239551E-1,5.134754E-1,8.32891E-1,1.9985811E-1,-1.2351581E-1,2.6088045E0,2.0026767E0,-2.4915406E-1,-3.7031266E-1,-4.425132E-1,-1.5928925E0,-4.4335824E-1,8.6208874E-1,-4.9265522E-1,3.5151434E-1,-2.4202728E0,1.0681383E-1,3.5012317E0,1.0851573E-1,7.827065E-2,-1.3309342E-1,8.412716E-2,6.407801E-2,-9.3170606E-2,-2.4833106E-1,2.1856463E-2,-1.6255145E-1,9.8431855E-2,-6.683661E-2,-1.1004936E-1,-6.826656E-4,-9.508073E-2,-1.0748066E-1,1.3766268E-2,1.5862696E-1,-1.1887763E-1,6.818571E-2,-3.576598E-2,1.3288832E-1,-1.1328887E-1,-1.470045E-2,-8.0689915E-2,-1.0881781E-1,1.1535803E-1],"split_indices":[14,12,4,7,4,7,12,11,0,9,22,4,15,3,8,0,17,7,26,21,27,14,14,19,26,14,19,14,4,0,0,0,0,0,0,0,0,0,0,0,0,0,0,0,0,0,0,0,0,0,0,0,0,0,0],"split_type":[0,0,0,0,0,0,0,0,0,0,0,0,0,0,0,0,0,0,0,0,0,0,0,0,0,0,0,0,0,0,0,0,0,0,0,0,0,0,0,0,0,0,0,0,0,0,0,0,0,0,0,0,0,0,0],"sum_hessian":[3.66552E4,1.3700077E4,2.2955121E4,1.0961172E4,2.738905E3,1.04069E4,1.2548221E4,1.0956917E4,4.25535E0,1.6590773E3,1.0798279E3,9.952251E3,4.546488E2,5.5377705E3,7.0104507E3,3.2323046E0,1.0953685E4,3.6741943E2,1.2916577E3,3.295459E1,1.0468733E3,6.5029106E3,3.4493406E3,2.6450723E2,1.9014159E2,4.6471924E3,8.9057776E2,5.459552E3,1.5508987E3,1.0774442E4,1.7924197E2,3.3247104E2,3.49484E1,9.293509E2,3.623069E2,2.4716097E1,8.238493E0,1.1303217E1,1.0355701E3,9.242286E1,6.410488E3,9.245735E2,2.524767E3,2.1324347E2,5.126376E1,1.6183102E2,2.8310574E1,3.0566802E3,1.5905126E3,1.1014501E2,7.8043274E2,3.333509E3,2.1260427E3,1.5085386E3,4.2360146E1],"tree_param":{"num_deleted":"0","num_feature":"30","num_nodes":"55","size_leaf_vector":"1"}},{"base_weights":[2.0691934E-3,-5.413938E-1,7.9281884E-1,1.0160651E0,-6.0743165E-1,9.7727245E-1,1.693227E-2,1.0761232E0,-1.18286625E-1,-9.930072E-1,-3.7635297E-1,1.0109948E0,-6.159631E-1,1.8554775E-1,-1.277067E0,-8.771956E-2,1.0817004E0,1.203987E0,-1.0100592E0,-1.0034604E0,-1.2717298E-1,1.0288514E0,-8.509934E-1,-1.2973206E-1,4.5225403E-1,9.0699553E-1,-2.06368E-1,1.08435646E-1,-1.4568081E0,1.0864463E-1,-4.914146E-2,1.746805E-1,-1.2661503E-1,-1.12368E-1,-7.7723205E-2,-1.0722115E-1,-6.0261685E-2,6.2927897E-3,-1.05603434E-1,1.0392331E-1,-7.903781E-2,-1.222409E-1,5.0656684E-2,-1.4534073E-1,1.23283766E-1,-1.0880356E-1,1.1112137E-1,6.695148E-2,-6.71696E-2,-1.6484703E-1,-1.21494435E-1],"categories":[],"categories_nodes":[],"categories_segments":[],"categories_sizes":[],"default_left":[0,0,0,0,0,0,0,0,0,0,0,0,0,0,0,0,0,0,0,0,0,0,0,0,0,0,0,0,0,0,0,0,0,0,0,0,0,0,0,0,0,0,0,0,0,0,0,0,0,0,0],"id":19,"left_children":[1,3,5,7,9,11,13,15,-1,17,19,21,23,25,27,-1,29,31,33,35,37,39,41,-1,43,45,47,-1,49,-1,-1,-1,-1,-1,-1,-1,-1,-1,-1,-1,-1,-1,-1,-1,-1,-1,-1,-1,-1,-1,-1],"loss_changes":[1.482361E4,2.1032725E3,2.0108135E3,1.1114276E2,1.7470864E3,6.1052344E2,5.892802E2,9.776855E0,0E0,2.765288E2,1.9164124E3,3.704961E2,1.7229187E2,6.757661E2,1.337341E2,0E0,6.5700684E0,7.871369E1,1.920503E2,9.5463135E1,1.5501312E3,2.0879492E2,5.4139908E1,0E0,1.3955959E2,3.4395636E2,6.3181415E2,0E0,1.1429382E1,0E0,0E0,0E0,0E0,0E0,0E0,0E0,0E0,0E0,0E0,0E0,0E0,0E0,0E0,0E0,0E0,0E0,0E0,0E0,0E0,0E0,0E0],"parents":[2147483647,0,0,1,1,2,2,3,3,4,4,5,5,6,6,7,7,9,9,10,10,11,11,12,12,13,13,14,14,16,16,17,17,18,18,19,19,20,20,21,21,22,22,24,24,25,25,26,26,28,28],"right_children":[2,4,6,8,10,12,14,16,-1,18,20,22,24,26,28,-1,30,32,34,36,38,40,42,-1,44,46,48,-1,50,-1,-1,-1,-1,-1,-1,-1,-1,-1,-1,-1,-1,-1,-1,-1,-1,-1,-1,-1,-1,-1,-1],"split_conditions":[1.1961728E0,-2.0246646E0,-1.6685426E-1,-1.3581967E0,-8.4796384E-2,2.6293725E-1,8.504144E-1,-5.4813457E-1,-1.18286625E-1,-7.4319024E0,-1.9239551E-1,9.72332E-1,1.5464647E0,-3.2415944E-1,-4.5800734E0,-8.771956E-2,9.465484E-1,-9.680112E-1,-3.947321E-1,7.138228E-1,1.6155522E-1,5.3999753E0,1.20683E-1,-1.2973206E-1,2.727768E-1,-3.529582E-1,-2.3235072E-1,1.08435646E-1,3.7965432E-3,1.0864463E-1,-4.914146E-2,1.746805E-1,-1.2661503E-1,-1.12368E-1,-7.7723205E-2,-1.0722115E-1,-6.0261685E-2,6.2927897E-3,-1.05603434E-1,1.0392331E-1,-7.903781E-2,-1.222409E-1,5.0656684E-2,-1.4534073E-1,1.23283766E-1,-1.0880356E-1,1.1112137E-1,6.695148E-2,-6.71696E-2,-1.6484703E-1,-1.21494435E-1],"split_indices":[4,17,3,12,18,12,2,4,0,23,4,1,17,29,17,0,29,12,18,17,8,29,12,0,28,29,8,0,8,0,0,0,0,0,0,0,0,0,0,0,0,0,0,0,0,0,0,0,0,0,0],"split_type":[0,0,0,0,0,0,0,0,0,0,0,0,0,0,0,0,0,0,0,0,0,0,0,0,0,0,0,0,0,0,0,0,0,0,0,0,0,0,0,0,0,0,0,0,0,0,0,0,0,0,0],"sum_hessian":[3.4492113E4,2.0442674E4,1.4049438E4,8.3094635E2,1.9611727E4,1.1350737E4,2.6987014E3,8.093516E2,2.1594734E1,7.3478613E3,1.2263866E4,1.1115826E4,2.3491133E2,2.3883433E3,3.1035812E2,1.8593327E0,8.074923E2,5.605549E1,7.2918057E3,3.4864768E3,8.77739E3,1.101068E4,1.0514567E2,1.432961E2,9.161523E1,8.4025946E2,1.5480837E3,2.1596212E1,2.8876193E2,8.053719E2,2.1203718E0,4.6196533E1,9.858955E0,4.8978213E3,2.3939844E3,2.9746086E3,5.1186816E2,7.2869697E3,1.4904198E3,1.0948629E4,6.2051357E1,8.263662E1,2.2509045E1,2.637158E1,6.5243645E1,7.7623055E1,7.626364E2,5.369495E2,1.0111342E3,1.5785547E2,1.3090646E2],"tree_param":{"num_deleted":"0","num_feature":"30","num_nodes":"51","size_leaf_vector":"1"}},{"base_weights":[2.8430321E-3,1.0424403E0,-4.2167035E-1,1.0513504E0,-1.1757349E-1,-4.3959863E-2,-6.4646596E-1,1.0677285E0,5.264258E-1,1.0472442E-1,-9.2727935E-1,-7.5833964E-1,6.9452144E-2,1.069341E0,8.995193E-1,9.057583E-1,-1.7694807E0,5.552778E-1,-3.909345E-1,-1.0819433E0,5.751371E-1,-7.392304E-2,-8.312415E-1,4.6482292E-1,-8.6251813E-1,7.320579E-2,1.0696103E-1,9.799129E-2,-1.149838E-1,-3.1660506E-1,9.487765E-2,-4.9168848E-2,-1.8191107E-1,8.961673E-2,-3.839003E-2,1.9814122E-2,-9.907742E-2,-1.1201366E-1,-4.533658E-2,-1.2314061E-1,1.7327902E-1,1.1510229E-1,-4.594504E-2,-1.2553673E-3,-8.7984815E-2,9.711402E-2,-6.298233E-2,6.068886E-2,-1.11813724E-1],"categories":[],"categories_nodes":[],"categories_segments":[],"categories_sizes":[],"default_left":[0,0,0,0,0,0,0,0,0,0,0,0,0,0,0,0,0,0,0,0,0,0,0,0,0,0,0,0,0,0,0,0,0,0,0,0,0,0,0,0,0,0,0,0,0,0,0,0,0],"id":20,"left_children":[1,3,5,7,-1,9,11,13,15,17,19,21,23,25,27,29,31,33,35,37,39,41,43,45,47,-1,-1,-1,-1,-1,-1,-1,-1,-1,-1,-1,-1,-1,-1,-1,-1,-1,-1,-1,-1,-1,-1,-1,-1],"loss_changes":[1.4393701E4,1.8813672E2,1.9662915E3,8.041699E1,0E0,1.1350308E3,1.1628232E3,1.5166016E0,2.5152863E2,1.652202E3,2.899474E2,6.2641797E2,7.237017E2,3.8085938E-2,1.6451462E1,4.625856E1,1.7075043E0,1.2410791E3,1.2450354E3,2.6602417E1,2.4653998E2,5.7184174E2,4.515332E2,7.6485754E2,2.2042908E2,0E0,0E0,0E0,0E0,0E0,0E0,0E0,0E0,0E0,0E0,0E0,0E0,0E0,0E0,0E0,0E0,0E0,0E0,0E0,0E0,0E0,0E0,0E0,0E0],"parents":[2147483647,0,0,1,1,2,2,3,3,5,5,6,6,7,7,8,8,9,9,10,10,11,11,12,12,13,13,14,14,15,15,16,16,17,17,18,18,19,19,20,20,21,21,22,22,23,23,24,24],"right_children":[2,4,6,8,-1,10,12,14,16,18,20,22,24,26,28,30,32,34,36,38,40,42,44,46,48,-1,-1,-1,-1,-1,-1,-1,-1,-1,-1,-1,-1,-1,-1,-1,-1,-1,-1,-1,-1,-1,-1,-1,-1],"split_conditions":[-3.6034925E0,5.1994985E-1,-4.4335824E-1,5.163472E-1,-1.1757349E-1,8.1410027E-1,9.405207E-1,-3.7984576E0,-1.626661E0,3.6734313E-1,7.6131797E-1,-5.4229945E-1,-6.940454E-2,-2.7948062E0,3.3428931E0,-7.764746E0,-1.5879066E0,6.4994514E-2,-1.4535067E0,5.0551105E-1,4.6692738E-1,-3.492713E-1,-1.9264371E0,1.5321775E-1,-1.8883544E0,7.320579E-2,1.0696103E-1,9.799129E-2,-1.149838E-1,-3.1660506E-1,9.487765E-2,-4.9168848E-2,-1.8191107E-1,8.961673E-2,-3.839003E-2,1.9814122E-2,-9.907742E-2,-1.1201366E-1,-4.533658E-2,-1.2314061E-1,1.7327902E-1,1.1510229E-1,-4.594504E-2,-1.2553673E-3,-8.7984815E-2,9.711402E-2,-6.298233E-2,6.068886E-2,-1.11813724E-1],"split_indices":[14,10,14,7,0,3,7,14,3,0,21,8,26,24,17,14,3,13,14,21,11,29,19,2,19,0,0,0,0,0,0,0,0,0,0,0,0,0,0,0,0,0,0,0,0,0,0,0,0],"split_type":[0,0,0,0,0,0,0,0,0,0,0,0,0,0,0,0,0,0,0,0,0,0,0,0,0,0,0,0,0,0,0,0,0,0,0,0,0,0,0,0,0,0,0,0,0,0,0,0,0],"sum_hessian":[3.2612898E4,9.455564E3,2.3157332E4,9.418259E3,3.7305595E1,8.64047E3,1.4516863E4,9.132289E3,2.8597028E2,7.3963623E3,1.2441073E3,1.2554899E4,1.9619641E3,9.040273E3,9.2015076E1,2.4594107E2,4.002921E1,3.874409E3,3.5219534E3,1.1282421E3,1.1586527E2,1.2087675E3,1.1346132E4,1.3779122E3,5.84052E2,9.382841E0,9.030891E3,8.9043846E1,2.9712281E0,1.8122059E0,2.4412886E2,1.9044179E0,3.812479E1,2.8426648E3,1.0317441E3,1.7772577E3,1.7446957E3,1.0628779E3,6.5364105E1,4.5225765E1,7.063951E1,2.8888864E2,9.198788E2,6.359533E2,1.0710179E4,9.422138E2,4.3569836E2,8.634281E1,4.9770917E2],"tree_param":{"num_deleted":"0","num_feature":"30","num_nodes":"49","size_leaf_vector":"1"}},{"base_weights":[-3.412271E-4,1.0338299E0,-4.031067E-1,1.0423092E0,-1.15021184E-1,-4.6369463E-2,-6.20982E-1,1.0600901E0,5.3330076E-1,9.1111474E-2,-8.979494E-1,-6.461812E-2,-7.512666E-1,1.061464E0,-4.1658375E-1,9.747489E-1,-1.2445803E0,6.481101E-1,-1.5155847E-1,-1.0568854E0,4.978793E-1,5.9464073E-1,-6.8738174E-1,-8.549705E-4,-8.137251E-1,1.06166855E-1,3.0642554E-2,9.334063E-2,-3.3657244E-1,-2.274668E-1,1.0149588E-1,4.780632E-2,-1.74509E-1,8.0005385E-2,-1.07414E-1,5.051174E-3,-7.919123E-2,-1.1362673E-1,-7.113173E-2,1.952971E-1,-8.195331E-2,7.8500934E-2,-1.3076094E-1,5.5245955E-2,-8.310601E-2,9.414674E-2,-7.756008E-2,-8.3546676E-2,1.12686574E-1],"categories":[],"categories_nodes":[],"categories_segments":[],"categories_sizes":[],"default_left":[0,0,0,0,0,0,0,0,0,0,0,0,0,0,0,0,0,0,0,0,0,0,0,0,0,0,0,0,0,0,0,0,0,0,0,0,0,0,0,0,0,0,0,0,0,0,0,0,0],"id":21,"left_children":[1,3,5,7,-1,9,11,13,15,17,19,21,23,25,27,29,31,33,35,37,39,41,43,45,47,-1,-1,-1,-1,-1,-1,-1,-1,-1,-1,-1,-1,-1,-1,-1,-1,-1,-1,-1,-1,-1,-1,-1,-1],"loss_changes":[1.2807734E4,1.6080762E2,1.7200127E3,7.71416E1,0E0,9.825969E2,9.9582764E2,1.7271484E1,2.3024252E2,9.7688196E2,2.593354E2,1.0711222E3,5.2175244E2,9.5410156E-1,3.6698463E1,3.292604E1,5.125956E1,5.747787E2,6.5146533E2,2.7931396E1,2.3151347E2,4.5997952E2,2.3943945E2,6.259193E2,4.345293E2,0E0,0E0,0E0,0E0,0E0,0E0,0E0,0E0,0E0,0E0,0E0,0E0,0E0,0E0,0E0,0E0,0E0,0E0,0E0,0E0,0E0,0E0,0E0,0E0],"parents":[2147483647,0,0,1,1,2,2,3,3,5,5,6,6,7,7,8,8,9,9,10,10,11,11,12,12,13,13,14,14,15,15,16,16,17,17,18,18,19,19,20,20,21,21,22,22,23,23,24,24],"right_children":[2,4,6,8,-1,10,12,14,16,18,20,22,24,26,28,30,32,34,36,38,40,42,44,46,48,-1,-1,-1,-1,-1,-1,-1,-1,-1,-1,-1,-1,-1,-1,-1,-1,-1,-1,-1,-1,-1,-1,-1,-1],"split_conditions":[-3.6034925E0,5.1994985E-1,-4.4335824E-1,4.4191605E-1,-1.15021184E-1,8.1410027E-1,-3.5134622E-1,2.5035665E0,-4.6356916E0,-7.807922E-1,7.503074E-1,-5.3547955E-1,-1.8417227E0,3.0167267E-1,-1.1473873E0,-7.764746E0,-1.4556704E0,4.239841E-1,6.0327154E-1,5.47958E-1,-1.320886E0,1.1247514E0,-3.492713E-1,-7.656253E-1,2.8034484E0,1.06166855E-1,3.0642554E-2,9.334063E-2,-3.3657244E-1,-2.274668E-1,1.0149588E-1,4.780632E-2,-1.74509E-1,8.0005385E-2,-1.07414E-1,5.051174E-3,-7.919123E-2,-1.1362673E-1,-7.113173E-2,1.952971E-1,-8.195331E-2,7.8500934E-2,-1.3076094E-1,5.5245955E-2,-8.310601E-2,9.414674E-2,-7.756008E-2,-8.3546676E-2,1.12686574E-1],"split_indices":[14,10,14,7,0,3,8,16,14,19,21,13,19,12,6,14,9,12,16,11,13,25,29,12,26,0,0,0,0,0,0,0,0,0,0,0,0,0,0,0,0,0,0,0,0,0,0,0,0],"split_type":[0,0,0,0,0,0,0,0,0,0,0,0,0,0,0,0,0,0,0,0,0,0,0,0,0,0,0,0,0,0,0,0,0,0,0,0,0,0,0,0,0,0,0,0,0,0,0,0,0],"sum_hessian":[3.0746764E4,8.61771E3,2.2129055E4,8.584903E3,3.2806705E1,8.391114E3,1.373794E4,8.294088E3,2.908158E2,7.2255054E3,1.1656085E3,2.6069187E3,1.1131021E4,8.286659E3,7.4286003E0,2.3333131E2,5.748447E1,2.1921677E3,5.033338E3,1.046672E3,1.1893647E2,1.2663759E3,1.340543E3,8.5535266E2,1.0275669E4,8.284008E3,2.6514401E0,5.564781E0,1.8638191E0,2.1728156E0,2.3115851E2,1.2951869E1,4.45326E1,2.0149374E3,1.772303E2,3.8267034E3,1.2066343E3,8.4929E2,1.9738203E2,5.6285873E1,6.2650597E1,1.1517057E3,1.1467018E2,1.3891978E2,1.2016232E3,3.8584036E2,4.695123E2,1.0162384E4,1.1328567E2],"tree_param":{"num_deleted":"0","num_feature":"30","num_nodes":"49","size_leaf_vector":"1"}},{"base_weights":[3.2150673E-3,9.9288076E-1,-3.6996296E-1,-3.9842916E-1,1.0382127E0,-8.994816E-1,-1.3687286E-1,1.0886612E0,-9.0667254E-1,-1.0268772E0,1.0457526E0,-5.0711536E-1,-1.0101316E0,-3.3162277E-2,-8.716048E-1,-8.652131E-2,1.133083E-1,-1.2180468E0,7.8467E-2,3.8159803E-2,-1.1136516E-1,1.0481068E0,-1.20240025E-1,-1.0698007E0,2.909039E-1,-1.0249671E0,7.612743E-1,-4.7689056E-1,1.6246262E-1,2.4284671E-1,-1.0702572E0,-1.389406E-1,-1.1106061E-1,-1.2885764E-1,1.1162879E-1,1.05001286E-1,2.4741089E-2,-1.0995276E-1,-5.5201568E-2,-1.02926746E-1,7.138462E-2,-1.0562559E-1,-5.8245737E-2,-1.0565732E-1,1.7746077E-1,6.188276E-2,-6.081242E-2,-1.1219163E-1,2.5041237E-2,1.1524653E-1,-1.3072737E-1,-1.1193404E-1,2.8293965E-2],"categories":[],"categories_nodes":[],"categories_segments":[],"categories_sizes":[],"default_left":[0,0,0,0,0,0,0,0,0,0,0,0,0,0,0,0,0,0,0,0,0,0,0,0,0,0,0,0,0,0,0,0,0,0,0,0,0,0,0,0,0,0,0,0,0,0,0,0,0,0,0,0,0],"id":22,"left_children":[1,3,5,7,9,11,13,15,17,19,21,23,25,27,29,-1,-1,31,33,-1,-1,35,-1,37,39,41,43,45,47,49,51,-1,-1,-1,-1,-1,-1,-1,-1,-1,-1,-1,-1,-1,-1,-1,-1,-1,-1,-1,-1,-1,-1],"loss_changes":[1.0772101E4,5.0414062E2,2.6141057E3,1.9200507E2,1.2151172E2,2.80542E2,1.1207106E3,6.6072617E0,5.8041595E1,3.925745E0,4.205078E1,6.406487E2,1.3345557E2,1.1189603E3,4.0302136E2,0E0,0E0,1.1006927E0,6.7136856E1,0E0,0E0,1.1491211E1,0E0,1.2269348E1,3.3043683E2,6.8711426E1,8.017181E1,5.675273E2,1.010891E3,3.907279E2,1.028822E2,0E0,0E0,0E0,0E0,0E0,0E0,0E0,0E0,0E0,0E0,0E0,0E0,0E0,0E0,0E0,0E0,0E0,0E0,0E0,0E0,0E0,0E0],"parents":[2147483647,0,0,1,1,2,2,3,3,4,4,5,5,6,6,7,7,8,8,9,9,10,10,11,11,12,12,13,13,14,14,17,17,18,18,21,21,23,23,24,24,25,25,26,26,27,27,28,28,29,29,30,30],"right_children":[2,4,6,8,10,12,14,16,18,20,22,24,26,28,30,-1,-1,32,34,-1,-1,36,-1,38,40,42,44,46,48,50,52,-1,-1,-1,-1,-1,-1,-1,-1,-1,-1,-1,-1,-1,-1,-1,-1,-1,-1,-1,-1,-1,-1],"split_conditions":[-1.8033683E0,6.904516E-1,-8.708296E-3,-2.2303402E0,-3.1315568E-1,-8.4851956E-1,9.642562E-1,-6.052405E0,-3.4622064E-1,-2.0627146E0,3.1460983E-1,4.7255896E-2,2.6535375E0,-1.8568778E-1,-8.0728585E-1,-8.652131E-2,1.133083E-1,8.76433E-3,8.09574E-1,3.8159803E-2,-1.1136516E-1,5.3999753E0,-1.20240025E-1,-9.274347E-3,-6.54989E-1,1.2097611E0,5.206864E-1,-1.0557855E0,-1.5692918E0,-2.666313E-1,5.351847E-1,-1.389406E-1,-1.1106061E-1,-1.2885764E-1,1.1162879E-1,1.05001286E-1,2.4741089E-2,-1.0995276E-1,-5.5201568E-2,-1.02926746E-1,7.138462E-2,-1.0562559E-1,-5.8245737E-2,-1.0565732E-1,1.7746077E-1,6.188276E-2,-6.081242E-2,-1.1219163E-1,2.5041237E-2,1.1524653E-1,-1.3072737E-1,-1.1193404E-1,2.8293965E-2],"split_indices":[10,11,4,17,4,10,1,17,1,27,12,29,22,5,10,0,0,12,29,0,0,29,0,29,1,17,18,10,24,26,2,0,0,0,0,0,0,0,0,0,0,0,0,0,0,0,0,0,0,0,0,0,0],"split_type":[0,0,0,0,0,0,0,0,0,0,0,0,0,0,0,0,0,0,0,0,0,0,0,0,0,0,0,0,0,0,0,0,0,0,0,0,0,0,0,0,0,0,0,0,0,0,0,0,0,0,0,0,0],"sum_hessian":[2.916528E4,7.9856714E3,2.1179607E4,2.5173492E2,7.733936E3,6.472638E3,1.470697E4,6.3830017E1,1.879049E2,2.764335E1,7.706293E3,1.4250339E3,5.0476045E3,1.2888717E4,1.8182527E3,1.0081866E0,6.282183E1,1.4259752E2,4.530739E1,1.4070648E0,2.6236286E1,7.698765E3,7.5277605E0,8.3554706E2,5.894869E2,5.0061E3,4.1504433E1,3.9431611E3,8.945556E3,2.7503992E2,1.5432128E3,5.0354427E1,9.224309E1,1.9448166E1,2.5859222E1,7.6801714E3,1.859398E1,7.891189E2,4.6428185E1,1.4268295E2,4.4680392E2,4.6742104E3,3.3188953E2,1.4839952E1,2.6664478E1,4.2135953E2,3.5218018E3,5.72549E2,8.373007E3,1.7349103E2,1.0154889E2,1.4893633E3,5.3849445E1],"tree_param":{"num_deleted":"0","num_feature":"30","num_nodes":"53","size_leaf_vector":"1"}},{"base_weights":[-9.292591E-4,9.941398E-1,-3.5127917E-1,1.0218116E0,-1.0691715E0,-9.026983E-1,-1.4006136E-1,1.0328311E0,-7.4714905E-1,-1.1454389E-1,9.045892E-4,-9.601156E-1,4.9098764E-2,-1.763459E-2,-8.287711E-1,-1.0681733E-1,1.0403893E0,-1.5845389E0,9.3188953E-1,-9.590174E-2,1.0194403E-1,-1.0240706E0,-5.2576077E-1,-9.1382414E-1,1.1098894E0,2.2109692E-1,-4.8631945E-1,-1.0789632E0,1.4127398E-2,5.7875562E-2,1.0468872E-1,-1.058583E-1,-1.7002283E-1,-7.872338E-2,1.1146199E-1,-1.0328259E-1,4.2988446E-2,-1.069324E-1,6.653183E-2,-1.1185906E-1,-2.5894249E-2,-1.1500623E-1,1.5067983E-1,4.1611772E-2,-5.9914924E-2,-1.0946993E-1,-1.7821064E-2,1.636236E-2,-1.1230963E-1,5.394901E-2,-1.1433927E-1],"categories":[],"categories_nodes":[],"categories_segments":[],"categories_sizes":[],"default_left":[0,0,0,0,0,0,0,0,0,0,0,0,0,0,0,0,0,0,0,0,0,0,0,0,0,0,0,0,0,0,0,0,0,0,0,0,0,0,0,0,0,0,0,0,0,0,0,0,0,0,0],"id":23,"left_children":[1,3,5,7,9,11,13,15,17,-1,19,21,23,25,27,-1,29,31,33,-1,-1,35,37,39,41,43,45,47,49,-1,-1,-1,-1,-1,-1,-1,-1,-1,-1,-1,-1,-1,-1,-1,-1,-1,-1,-1,-1,-1,-1],"loss_changes":[9.649497E3,4.126167E2,2.3841538E3,1.3942139E2,7.82547E0,3.098828E2,1.2481057E3,1.1336963E2,6.420412E1,0E0,8.191032E0,1.479956E2,3.3146265E2,1.4065176E3,4.7117798E2,0E0,2.0523926E1,3.3988953E-2,5.738969E0,0E0,0E0,5.976123E1,4.463397E2,2.2523605E1,1.4021292E2,1.3325065E3,7.949877E2,9.46626E1,3.121934E2,0E0,0E0,0E0,0E0,0E0,0E0,0E0,0E0,0E0,0E0,0E0,0E0,0E0,0E0,0E0,0E0,0E0,0E0,0E0,0E0,0E0,0E0],"parents":[2147483647,0,0,1,1,2,2,3,3,4,4,5,5,6,6,7,7,8,8,10,10,11,11,12,12,13,13,14,14,16,16,17,17,18,18,21,21,22,22,23,23,24,24,25,25,26,26,27,27,28,28],"right_children":[2,4,6,8,10,12,14,16,18,-1,20,22,24,26,28,-1,30,32,34,-1,-1,36,38,40,42,44,46,48,50,-1,-1,-1,-1,-1,-1,-1,-1,-1,-1,-1,-1,-1,-1,-1,-1,-1,-1,-1,-1,-1,-1],"split_conditions":[-1.8669015E0,2.2459824E-1,-6.089719E-2,1.6893688E0,1.7379351E0,1.5233727E0,2.2719203E-1,-3.5053536E-1,-3.2011187E-1,-1.1454389E-1,-3.1581566E0,1.2857864E0,4.9165595E-1,5.859055E-1,1.9661878E0,-1.0681733E-1,3.754258E-1,-1.12211615E-1,-5.8054054E-1,-9.590174E-2,1.0194403E-1,2.6535375E0,4.3820746E-2,-2.769524E-1,-1.8537274E-1,8.32891E-1,-7.272906E-2,-2.473911E0,4.9562138E-1,5.7875562E-2,1.0468872E-1,-1.058583E-1,-1.7002283E-1,-7.872338E-2,1.1146199E-1,-1.0328259E-1,4.2988446E-2,-1.069324E-1,6.653183E-2,-1.1185906E-1,-2.5894249E-2,-1.1500623E-1,1.5067983E-1,4.1611772E-2,-5.9914924E-2,-1.0946993E-1,-1.7821064E-2,1.636236E-2,-1.1230963E-1,5.394901E-2,-1.1433927E-1],"split_indices":[10,12,4,7,4,7,8,4,1,0,1,16,15,1,4,0,4,4,6,0,0,22,18,1,21,3,27,12,3,0,0,0,0,0,0,0,0,0,0,0,0,0,0,0,0,0,0,0,0,0,0],"split_type":[0,0,0,0,0,0,0,0,0,0,0,0,0,0,0,0,0,0,0,0,0,0,0,0,0,0,0,0,0,0,0,0,0,0,0,0,0,0,0,0,0,0,0,0,0,0,0,0,0,0,0],"sum_hessian":[2.7676936E4,7.2066533E3,2.0470281E4,7.11178E3,9.4873795E1,5.668486E3,1.4801796E4,7.0681655E3,4.3613834E1,8.849601E1,6.3777857E0,5.34598E3,3.225061E2,1.2568596E4,2.2331997E3,2.4833223E1,7.0433325E3,2.9138048E1,1.4475788E1,3.31345E0,3.0643356E0,4.6586733E3,6.8730664E2,1.6912395E2,1.5338214E2,8.327427E3,4.241169E3,1.7218378E3,5.1136203E2,9.90145E1,6.944318E3,7.0837193E0,2.2054329E1,1.0729858E0,1.3402802E1,4.6310757E3,2.7597576E1,4.720041E2,2.1530254E2,1.2829955E2,4.0824398E1,2.263031E1,1.3075183E2,6.728225E3,1.5992024E3,1.4249548E3,2.8162139E3,5.896423E1,1.6628735E3,3.5209216E2,1.5926987E2],"tree_param":{"num_deleted":"0","num_feature":"30","num_nodes":"51","size_leaf_vector":"1"}},{"base_weights":[2.7683203E-3,1.0196452E0,-3.317709E-1,1.0287019E0,-1.12054884E-1,-8.767137E-1,-1.2528643E-1,1.0420396E0,6.0353065E-1,-9.307446E-1,1.365351E-1,2.0296268E-1,-3.911585E-1,1.0433515E0,-2.5830567E-1,-1.643608E-1,8.833783E-1,-4.2687914E-1,-1.0226324E0,-7.385977E-1,1.0555696E0,4.4149193E-1,-2.2344099E-1,-6.5736043E-1,1.4659812E-1,2.1502292E-2,1.0435051E-1,9.073965E-2,-2.7637777E-1,-2.9600155E-1,9.653618E-2,-6.922655E-2,1.3340545E-1,-1.0353358E-1,3.5628945E-2,-1.14462696E-1,3.0627772E-2,-1.1584512E-1,1.4011411E-1,6.6217765E-2,-2.840296E-2,2.1456389E-2,-7.800004E-2,-8.618262E-2,3.8750365E-2,5.2474614E-2,-8.240214E-2],"categories":[],"categories_nodes":[],"categories_segments":[],"categories_sizes":[],"default_left":[0,0,0,0,0,0,0,0,0,0,0,0,0,0,0,0,0,0,0,0,0,0,0,0,0,0,0,0,0,0,0,0,0,0,0,0,0,0,0,0,0,0,0,0,0,0,0],"id":24,"left_children":[1,3,5,7,-1,9,11,13,15,17,19,21,23,25,27,-1,29,31,33,35,37,39,41,43,45,-1,-1,-1,-1,-1,-1,-1,-1,-1,-1,-1,-1,-1,-1,-1,-1,-1,-1,-1,-1,-1,-1],"loss_changes":[8.952431E3,1.27424805E2,2.2280342E3,3.6161133E1,0E0,2.9801367E2,1.253453E3,1.0998535E1,1.2703719E2,2.3873633E2,2.2302603E2,6.538446E2,1.1360181E3,5.7470703E-1,2.3361925E1,0E0,5.9019547E1,3.7407758E2,7.688916E1,6.0651115E1,1.0506209E2,6.601963E2,5.624126E2,1.1342969E3,9.650939E2,0E0,0E0,0E0,0E0,0E0,0E0,0E0,0E0,0E0,0E0,0E0,0E0,0E0,0E0,0E0,0E0,0E0,0E0,0E0,0E0,0E0,0E0],"parents":[2147483647,0,0,1,1,2,2,3,3,5,5,6,6,7,7,8,8,9,9,10,10,11,11,12,12,13,13,14,14,16,16,17,17,18,18,19,19,20,20,21,21,22,22,23,23,24,24],"right_children":[2,4,6,8,-1,10,12,14,16,18,20,22,24,26,28,-1,30,32,34,36,38,40,42,44,46,-1,-1,-1,-1,-1,-1,-1,-1,-1,-1,-1,-1,-1,-1,-1,-1,-1,-1,-1,-1,-1,-1],"split_conditions":[-3.7984576E0,5.1994985E-1,-4.3171026E-2,5.7057434E-1,-1.12054884E-1,1.6893688E0,-3.418137E-1,2.747896E0,1.5776484E0,-1.0589889E0,5.239611E-1,6.4994514E-2,1.0718759E0,-3.1315568E-1,-1.0960183E0,-1.643608E-1,9.582806E-1,1.314592E0,2.6535375E0,-2.769524E-1,-7.8736615E-1,5.952809E-1,4.479069E-2,9.090116E-1,5.35319E-1,2.1502292E-2,1.0435051E-1,9.073965E-2,-2.7637777E-1,-2.9600155E-1,9.653618E-2,-6.922655E-2,1.3340545E-1,-1.0353358E-1,3.5628945E-2,-1.14462696E-1,3.0627772E-2,-1.1584512E-1,1.4011411E-1,6.6217765E-2,-2.840296E-2,2.1456389E-2,-7.800004E-2,-8.618262E-2,3.8750365E-2,5.2474614E-2,-8.240214E-2],"split_indices":[14,10,4,7,0,7,14,16,4,14,15,13,4,4,6,0,11,11,22,1,1,1,15,7,16,0,0,0,0,0,0,0,0,0,0,0,0,0,0,0,0,0,0,0,0,0,0],"split_type":[0,0,0,0,0,0,0,0,0,0,0,0,0,0,0,0,0,0,0,0,0,0,0,0,0,0,0,0,0,0,0,0,0,0,0,0,0,0,0,0,0,0,0,0,0,0,0],"sum_hessian":[2.6314352E4,6.513536E3,1.9800814E4,6.486606E3,2.693008E1,5.440168E3,1.4360647E4,6.287902E3,1.9870415E2,5.1648374E3,2.753306E2,6.4265645E3,7.934083E3,6.281761E3,6.1402593E0,2.1465542E1,1.7723862E2,7.9748474E2,4.367353E3,1.4113441E2,1.3419618E2,4.1211606E3,2.3054036E3,5.306848E3,2.6272346E3,1.4237446E0,6.280338E3,4.625856E0,1.5144033E0,2.9685316E0,1.7427008E2,6.9356586E2,1.0391888E2,4.3277324E3,3.9620228E1,1.0156982E2,3.95646E1,1.7800295E1,1.1639588E2,3.1600417E3,9.61119E2,1.2904506E3,1.01495294E3,4.438474E3,8.6837396E2,1.890979E3,7.3625555E2],"tree_param":{"num_deleted":"0","num_feature":"30","num_nodes":"47","size_leaf_vector":"1"}},{"base_weights":[-1.5499722E-3,1.0133533E0,-3.171362E-1,1.0196235E0,-1.335224E0,-9.072943E-1,-1.3792285E-1,1.0354714E0,5.657776E-1,-2.0437609E-1,-1.0795218E-1,-9.7048664E-1,1.3454164E-2,6.802442E-2,-5.2075934E-1,1.0361272E0,-8.546232E-2,-1.3778502E-1,8.953402E-1,-2.5523007E-1,-1.0314589E0,7.4438924E-1,-1.0166153E0,2.1818201E-1,-7.9141897E-1,3.259621E-1,-7.4161905E-1,1.0372001E-1,-1.2871319E-2,-2.5752443E-1,9.726581E-2,-1.0699647E-1,5.8779992E-2,-1.05257526E-1,-7.5247474E-2,-1.16657555E-1,1.20564245E-1,-1.1000194E-1,4.3247066E-2,5.1354885E-2,-2.505122E-2,9.643984E-3,-1.05376914E-1,7.002061E-2,-1.250491E-1,6.492851E-2,-8.473436E-2],"categories":[],"categories_nodes":[],"categories_segments":[],"categories_sizes":[],"default_left":[0,0,0,0,0,0,0,0,0,0,0,0,0,0,0,0,0,0,0,0,0,0,0,0,0,0,0,0,0,0,0,0,0,0,0,0,0,0,0,0,0,0,0,0,0,0,0],"id":25,"left_children":[1,3,5,7,9,11,13,15,17,-1,-1,19,21,23,25,27,-1,-1,29,31,33,35,37,39,41,43,45,-1,-1,-1,-1,-1,-1,-1,-1,-1,-1,-1,-1,-1,-1,-1,-1,-1,-1,-1,-1],"loss_changes":[7.9933555E3,8.85332E1,2.0133129E3,4.1881836E1,7.2781754E-1,2.580144E2,1.1514622E3,7.955078E0,1.302563E2,0E0,0E0,1.8069702E2,2.159154E2,1.2257184E3,9.5552893E2,7.260742E0,0E0,0E0,4.8881622E1,2.2540915E2,2.1731201E1,1.4925224E2,1.4862328E1,1.1193754E3,3.2914563E2,6.247739E2,5.963801E2,0E0,0E0,0E0,0E0,0E0,0E0,0E0,0E0,0E0,0E0,0E0,0E0,0E0,0E0,0E0,0E0,0E0,0E0,0E0,0E0],"parents":[2147483647,0,0,1,1,2,2,3,3,4,4,5,5,6,6,7,7,8,8,11,11,12,12,13,13,14,14,15,15,18,18,19,19,20,20,21,21,22,22,23,23,24,24,25,25,26,26],"right_children":[2,4,6,8,10,12,14,16,18,-1,-1,20,22,24,26,28,-1,-1,30,32,34,36,38,40,42,44,46,-1,-1,-1,-1,-1,-1,-1,-1,-1,-1,-1,-1,-1,-1,-1,-1,-1,-1,-1,-1],"split_conditions":[-3.7984576E0,1.6893688E0,-1.5190136E-1,5.163472E-1,-1.9737338E-1,1.5233727E0,1.5585114E-1,3.1460983E-1,1.5468988E0,-2.0437609E-1,-1.0795218E-1,-1.5928925E0,-6.90828E-1,8.32891E-1,-5.107878E-1,2.747896E0,-8.546232E-2,-1.3778502E-1,9.582806E-1,7.6585025E-2,1.3680357E0,-7.230077E-1,1.9036913E0,3.6734313E-1,-3.4221807E-1,1.1373386E0,-2.1698275E0,1.0372001E-1,-1.2871319E-2,-2.5752443E-1,9.726581E-2,-1.0699647E-1,5.8779992E-2,-1.05257526E-1,-7.5247474E-2,-1.16657555E-1,1.20564245E-1,-1.1000194E-1,4.3247066E-2,5.1354885E-2,-2.505122E-2,9.643984E-3,-1.05376914E-1,7.002061E-2,-1.250491E-1,6.492851E-2,-8.473436E-2],"split_indices":[14,7,4,7,9,7,14,12,4,0,0,14,26,3,8,16,0,0,11,23,11,1,17,0,20,14,19,0,0,0,0,0,0,0,0,0,0,0,0,0,0,0,0,0,0,0,0],"split_type":[0,0,0,0,0,0,0,0,0,0,0,0,0,0,0,0,0,0,0,0,0,0,0,0,0,0,0,0,0,0,0,0,0,0,0,0,0,0,0,0,0,0,0,0,0,0,0],"sum_hessian":[2.4954656E4,5.9186094E3,1.9036047E4,5.9034146E3,1.5194898E1,4.4332104E3,1.4602836E4,5.702989E3,2.0042575E2,2.1750946E0,1.3019803E1,4.1484424E3,2.8476794E2,9.495529E3,5.107307E3,5.701463E3,1.5262043E0,2.859617E1,1.7182957E2,3.262645E2,3.822178E3,1.6673236E2,1.1803559E2,8.083898E3,1.4116316E3,1.0564941E3,4.050813E3,5.696325E3,5.137383E0,3.0405502E0,1.6878902E2,1.6577975E2,1.6048474E2,3.5506553E3,2.715227E2,3.2122055E1,1.346103E2,1.1183941E2,6.1961823E0,4.958807E3,3.1250908E3,3.2212195E2,1.0895096E3,8.542535E2,2.0224068E2,2.8579333E2,3.7650195E3],"tree_param":{"num_deleted":"0","num_feature":"30","num_nodes":"47","size_leaf_vector":"1"}},{"base_weights":[1.5385252E-3,1.0077972E0,-2.9309613E-1,1.0165559E0,-1.0789658E-1,9.871832E-3,-4.9885568E-1,1.0307424E0,5.717284E-1,2.1539417E-1,-5.35764E-1,-1.831663E-1,-7.3573416E-1,1.031759E0,8.858814E-2,-1.1443057E0,8.813035E-1,3.729085E-1,-7.9749554E-1,9.355679E-1,-7.837128E-1,-6.8745255E-1,2.2375208E-1,-3.0848554E-1,-9.048014E-1,4.6598505E-2,1.0322529E-1,8.969461E-2,-2.0933986E-1,8.6781435E-2,-1.6616213E-1,9.294812E-2,-1.9797063E-1,-1.2892799E-1,4.436331E-2,-9.576106E-2,1.418215E-1,1.21358715E-1,-1.1150316E-1,2.7593384E-2,-1.11127816E-1,-9.179633E-2,6.985126E-2,-1.1858597E-1,4.2797644E-2,5.1934607E-2,-5.632736E-2,9.128637E-2,-9.4286256E-2],"categories":[],"categories_nodes":[],"categories_segments":[],"categories_sizes":[],"default_left":[0,0,0,0,0,0,0,0,0,0,0,0,0,0,0,0,0,0,0,0,0,0,0,0,0,0,0,0,0,0,0,0,0,0,0,0,0,0,0,0,0,0,0,0,0,0,0,0,0],"id":26,"left_children":[1,3,5,7,-1,9,11,13,15,17,19,21,23,25,27,29,31,33,35,37,39,41,43,45,47,-1,-1,-1,-1,-1,-1,-1,-1,-1,-1,-1,-1,-1,-1,-1,-1,-1,-1,-1,-1,-1,-1,-1,-1],"loss_changes":[7.051128E3,9.954785E1,1.1468107E3,3.326367E1,0E0,8.346167E2,8.191426E2,4.887207E0,9.028029E1,8.628313E2,7.436268E2,9.6418915E2,4.5182324E2,9.6972656E-1,1.3688003E1,2.862751E1,2.1540611E1,5.506625E2,2.595922E2,1.690398E2,6.05386E2,6.709798E2,7.491988E2,3.7489633E2,3.1106348E2,0E0,0E0,0E0,0E0,0E0,0E0,0E0,0E0,0E0,0E0,0E0,0E0,0E0,0E0,0E0,0E0,0E0,0E0,0E0,0E0,0E0,0E0,0E0,0E0],"parents":[2147483647,0,0,1,1,2,2,3,3,5,5,6,6,7,7,8,8,9,9,10,10,11,11,12,12,13,13,14,14,15,15,16,16,17,17,18,18,19,19,20,20,21,21,22,22,23,23,24,24],"right_children":[2,4,6,8,-1,10,12,14,16,18,20,22,24,26,28,30,32,34,36,38,40,42,44,46,48,-1,-1,-1,-1,-1,-1,-1,-1,-1,-1,-1,-1,-1,-1,-1,-1,-1,-1,-1,-1,-1,-1,-1,-1],"split_conditions":[-3.7984576E0,5.1994985E-1,-4.4335824E-1,5.8462876E-1,-1.0789658E-1,1.1723466E-1,-1.0410233E-1,2.747896E0,1.7567784E0,7.617481E-1,-2.0588138E0,-3.653194E-1,-7.807922E-1,-2.7948062E0,-1.0960183E0,-1.5670934E0,1.6893688E0,-1.5692918E0,1.6948048E0,7.2060126E-1,-5.4229945E-1,6.9131255E-1,-9.9061775E-1,-1.2757766E0,-1.816702E0,4.6598505E-2,1.0322529E-1,8.969461E-2,-2.0933986E-1,8.6781435E-2,-1.6616213E-1,9.294812E-2,-1.9797063E-1,-1.2892799E-1,4.436331E-2,-9.576106E-2,1.418215E-1,1.21358715E-1,-1.1150316E-1,2.7593384E-2,-1.11127816E-1,-9.179633E-2,6.985126E-2,-1.1858597E-1,4.2797644E-2,5.1934607E-2,-5.632736E-2,9.128637E-2,-9.4286256E-2],"split_indices":[14,10,14,7,0,27,8,16,11,24,16,6,19,24,6,16,7,24,16,3,8,21,0,12,6,0,0,0,0,0,0,0,0,0,0,0,0,0,0,0,0,0,0,0,0,0,0,0,0],"split_type":[0,0,0,0,0,0,0,0,0,0,0,0,0,0,0,0,0,0,0,0,0,0,0,0,0,0,0,0,0,0,0,0,0,0,0,0,0,0,0,0,0,0,0,0,0,0,0,0,0],"sum_hessian":[2.378092E4,5.385507E3,1.8395412E4,5.363508E3,2.1999376E1,7.4405796E3,1.0954833E4,5.196464E3,1.6704373E2,5.4052227E3,2.0353569E3,4.6969517E3,6.2578813E3,5.190768E3,5.695862E0,2.5117308E1,1.4192642E2,4.678328E3,7.2689435E2,2.931323E2,1.7422247E3,2.0972188E3,2.599733E3,1.7750331E3,4.4828486E3,5.3503947E0,5.1854175E3,4.585871E0,1.1099906E0,4.9983788E0,2.0118929E1,1.4023999E2,1.686434E0,1.9023126E2,4.488097E3,6.78436E2,4.845836E1,2.58494E2,3.46383E1,4.1143246E2,1.3307922E3,1.7984432E3,2.9877557E2,3.283773E2,2.2713555E3,4.1749908E2,1.3575339E3,9.1472115E1,4.3913765E3],"tree_param":{"num_deleted":"0","num_feature":"30","num_nodes":"49","size_leaf_vector":"1"}},{"base_weights":[1.6121496E-4,1.002818E0,-2.7758476E-1,1.0112453E0,-1.0460787E-1,-8.988268E-1,-1.09185E-1,1.0249312E0,7.714579E-1,-9.5347637E-1,-2.0905878E-1,7.492588E-2,-4.7132707E-1,-8.469664E-2,1.0255781E0,8.63532E-1,-1.8895029E0,-3.5433856E-1,-1.0121624E0,-9.117536E-1,5.630518E-1,2.0846573E-1,-7.457779E-1,2.099998E-1,-7.166707E-1,1.0262587E-1,-4.6304385E-3,9.0886086E-2,-2.3264392E-1,-1.15824595E-1,-2.4459063E-1,-1.1031344E-1,4.072595E-2,-1.0317154E-1,-7.535149E-2,-4.348456E-3,-1.03052974E-1,1.0366452E-1,-1.0047244E-1,4.8420448E-2,-2.346052E-2,4.1570615E-2,-9.744775E-2,5.2856475E-2,-1.1432302E-1,-9.468358E-2,-1.1115274E-2],"categories":[],"categories_nodes":[],"categories_segments":[],"categories_sizes":[],"default_left":[0,0,0,0,0,0,0,0,0,0,0,0,0,0,0,0,0,0,0,0,0,0,0,0,0,0,0,0,0,0,0,0,0,0,0,0,0,0,0,0,0,0,0,0,0,0,0],"id":27,"left_children":[1,3,5,7,-1,9,11,13,15,17,19,21,23,-1,25,27,29,31,33,35,37,39,41,43,45,-1,-1,-1,-1,-1,-1,-1,-1,-1,-1,-1,-1,-1,-1,-1,-1,-1,-1,-1,-1,-1,-1],"loss_changes":[6.304314E3,8.5848145E1,1.8544827E3,1.5260254E1,0E0,1.4230542E2,9.300033E2,6.4677734E0,6.732445E1,1.2279614E2,1.5178407E2,1.0136761E3,7.859979E2,0E0,3.4204102E0,3.9687653E1,9.432678E-1,1.7952576E2,1.535376E1,1.5048042E1,1.0013539E2,9.719121E2,3.4423126E2,5.375085E2,4.8165747E2,0E0,0E0,0E0,0E0,0E0,0E0,0E0,0E0,0E0,0E0,0E0,0E0,0E0,0E0,0E0,0E0,0E0,0E0,0E0,0E0,0E0,0E0],"parents":[2147483647,0,0,1,1,2,2,3,3,5,5,6,6,7,7,8,8,9,9,10,10,11,11,12,12,14,14,15,15,16,16,17,17,18,18,19,19,20,20,21,21,22,22,23,23,24,24],"right_children":[2,4,6,8,-1,10,12,14,16,18,20,22,24,-1,26,28,30,32,34,36,38,40,42,44,46,-1,-1,-1,-1,-1,-1,-1,-1,-1,-1,-1,-1,-1,-1,-1,-1,-1,-1,-1,-1,-1,-1],"split_conditions":[-3.7984576E0,5.1994985E-1,-1.7199104E-1,-1.5341997E0,-1.0460787E-1,1.3321859E0,1.5585114E-1,1.2743118E-1,6.944905E-1,-1.5928925E0,4.813878E-1,8.32891E-1,-3.89837E-1,